svm_type c_svc
kernel_type rbf
gamma 0.333333
nr_class 2
total_sv 7
rho -0.373574
label 1 -1
nr_sv 4 3
SV
0.9256046980498261 1:1 2:0 3:1 
0.9316608217005102 1:1 2:0 3:0 
0.9266049014195018 1:1 2:1 3:0 
0.2161295788301618 1:1 2:1 3:1 
-1 1:0 2:0 3:0 
-1 1:0 2:1 3:0 
-1 1:0 2:0 3:1 
