svm_type c_svc
kernel_type rbf
gamma 0.00507614
nr_class 4
total_sv 565
rho -0.0756263 -0.242862 -0.62083 -0.155417 -0.539063 -0.450879
label 1 2 3 4
nr_sv 154 186 140 85
SV
1 1 1 50:1 61:1 83:4 87:1 145:1 185:2 187:1 197:1 
1 1 1 6:1 8:1 24:1 33:1 82:2 99:1 145:2 163:1 184:1 
0.913918407633623 0.7413806062390654 0.3682244395865251 8:21 13:3 26:3 33:22 52:1 54:3 69:1 81:1 83:20 143:2 181:1 196:1 
1 1 0.6560439920436005 24:1 77:1 142:2 143:1 147:6 149:1 156:5 160:1 189:1 190:1 196:1 
0.8851799261883577 0.725065495779456 0.3629618446081888 6:3 9:19 33:1 36:5 38:29 43:2 45:4 49:3 52:1 54:39 62:2 64:6 67:1 77:4 84:1 98:1 142:6 
1 1 1 33:2 69:1 70:5 190:1 
1 1 0.5826230882121611 6:1 24:1 33:3 67:1 92:1 165:1 169:1 170:1 189:2 
0.5994008516801351 0 0 8:3 10:1 15:1 16:2 17:1 18:1 19:1 20:1 21:1 22:1 23:1 24:2 25:1 27:1 28:2 31:2 32:1 34:1 45:1 46:2 47:1 50:1 54:8 86:1 175:6 187:1 
1 1 1 62:1 83:3 187:1 
1 1 1 8:1 10:1 33:1 52:3 66:2 67:1 73:1 81:1 90:1 152:2 179:1 
0.8643315572988036 0.6988835550671791 0.3329237635604901 6:22 24:1 26:1 33:3 54:3 62:1 67:3 83:9 92:20 175:1 181:1 189:1 197:2 
0.9027366076315749 0 0 36:2 38:1 54:7 64:1 77:11 87:1 197:1 
1 0.8821392522610914 0.02648210797660171 26:4 33:2 43:1 187:1 188:4 
1 0 0 9:1 36:6 43:2 45:1 54:11 64:3 84:1 87:1 92:2 98:1 197:5 
1 1 1 13:3 73:1 152:1 187:1 
1 1 1 25:1 47:1 54:1 60:1 66:1 103:1 127:7 131:1 145:2 147:1 148:1 159:1 181:1 185:1 
0.884854695744875 0.7249647973976222 0.3627205243437384 9:15 33:2 36:7 38:34 43:1 45:4 49:26 52:24 54:18 61:36 62:2 99:23 101:2 152:2 184:2 
1 0.9135516424564336 0.6229619889481411 9:1 36:1 38:5 43:1 49:1 61:1 64:2 77:1 99:1 101:2 
0.3144309389529917 0 0 13:4 26:1 33:1 36:1 38:1 48:4 49:1 54:8 
0.9858184148702338 0 0 6:2 9:1 36:1 38:1 43:2 52:1 54:3 62:1 64:3 84:1 
1 0 0 9:1 36:1 43:3 45:1 49:2 54:3 64:2 84:1 87:1 98:1 99:2 
1 1 1 8:1 26:1 73:1 143:1 
0.3369348482248095 0.4177060829089281 0.2538346929442454 26:2 46:1 69:1 70:1 72:2 82:2 131:3 138:23 152:2 169:1 
0.04672074376696153 0.03971750593207547 0 6:3 26:2 33:2 49:4 52:1 54:4 61:3 62:10 66:1 81:3 99:14 103:2 169:1 170:1 
0.2080834521958096 0.3394815586307845 0 6:3 15:1 32:1 33:20 34:1 66:4 87:1 142:1 
1 0 0 8:1 67:1 72:1 131:3 138:12 152:1 170:1 196:1 
0.924153123219194 0.7571185067165316 0.3787289064679109 6:11 9:19 17:1 24:1 31:11 32:3 36:11 38:82 43:3 45:9 49:13 50:1 52:5 54:38 61:11 62:5 64:16 67:4 77:2 87:4 98:3 99:10 101:10 175:1 184:1 197:2 
1 1 1 24:2 54:2 69:1 70:1 131:5 196:1 
0.6909730432812169 0.5728503086237986 0.2987641216316656 9:1 13:11 24:1 26:3 33:11 36:1 38:2 48:7 52:1 54:30 61:1 62:2 66:3 67:1 73:4 82:1 83:4 90:1 143:2 160:2 171:3 175:2 190:3 197:1 
1 0 0 8:1 26:2 28:1 54:1 67:1 72:2 82:3 131:1 138:7 187:2 196:3 
0.571387443703133 0.3553334716642704 0 6:1 8:4 24:3 33:3 46:1 48:1 49:1 65:1 67:1 70:2 83:6 99:18 103:2 111:2 126:2 133:2 143:1 145:1 147:1 156:2 163:1 175:1 181:1 
1 1 0.6464939527081377 43:1 67:6 101:1 190:2 
1 1 1 6:1 24:2 54:1 69:1 90:1 
0.7503930642624347 0.6380401775452142 0.3347455593515798 9:18 24:1 36:2 38:25 43:1 45:1 52:1 54:10 62:2 64:4 77:1 84:1 87:1 98:1 164:1 175:1 
1 1 0.8435794134080482 43:1 92:8 142:1 143:1 184:4 
1 0.3642334641921021 0 8:1 10:1 12:2 15:1 16:2 17:1 18:1 19:1 20:1 21:1 22:1 23:1 24:2 25:1 27:1 28:2 31:2 32:1 34:1 45:1 46:2 47:1 50:1 61:1 156:1 175:3 181:1 
1 1 1 8:2 22:1 24:1 28:3 46:1 47:1 50:1 99:1 131:1 137:1 160:2 181:1 185:2 189:1 
1 0.2397389701126678 0.02118042075855987 8:1 9:1 10:1 13:1 15:1 16:2 17:1 18:1 19:1 20:1 21:1 22:1 23:1 24:2 25:1 26:2 27:1 28:2 31:2 32:1 34:1 36:3 38:1 45:1 46:2 47:1 49:1 50:1 54:21 66:3 67:1 69:3 73:1 83:9 90:1 92:4 101:1 104:1 142:1 143:3 145:6 160:2 171:1 187:1 197:1 
0.9243801858101579 0.7572303533649392 0.3792454968494656 2:1 6:54 8:4 9:177 13:137 22:1 24:9 26:13 33:28 36:130 38:220 43:124 45:12 48:137 49:177 52:83 54:311 61:127 62:14 64:49 66:6 67:39 77:36 81:3 84:1 86:2 87:21 90:4 92:20 99:145 100:1 101:20 138:3 142:1 143:4 152:2 154:6 156:1 164:1 181:4 184:6 190:2 196:1 197:4 
0.1103258391034467 0 0 6:6 9:12 33:1 36:3 38:12 43:4 45:1 49:2 54:11 61:5 62:4 64:2 77:1 87:1 98:1 
0.2837431748144849 0.1331131801684059 0 6:2 8:1 9:2 10:1 13:5 15:1 16:2 17:2 18:1 19:1 20:1 21:1 22:1 23:1 24:2 25:1 26:3 27:1 28:2 31:2 32:1 33:3 34:1 36:1 38:5 43:1 45:1 46:2 47:1 48:3 49:11 50:1 54:14 62:2 66:8 67:1 69:5 73:3 81:1 82:4 83:2 90:2 133:3 143:2 145:1 181:5 187:1 189:1 
1 1 0.4359977699900891 9:1 36:1 43:3 45:1 54:3 64:3 84:1 98:1 
1 1 1 6:1 9:1 49:1 54:1 62:1 66:1 69:1 90:1 119:1 187:1 
1 1 0 8:1 22:3 31:1 43:1 46:1 54:4 67:1 127:1 163:1 197:4 
1 1 1 27:1 40:1 45:2 107:3 111:3 113:1 
1 1 0.530998730205238 38:2 54:4 64:2 67:1 
0.5861509522936884 0.4791388510174659 0.2399152104408123 6:1 9:2 13:40 48:40 90:2 152:1 196:1 
0.5824803142102228 0.4052546708245016 0.09000237567978397 8:3 10:3 26:4 33:2 34:1 46:1 72:3 81:10 
1 1 1 79:2 80:1 86:2 101:1 142:5 143:1 175:3 187:1 194:2 
0.05505176719394987 0 0 9:12 33:3 36:3 38:2 54:7 61:4 64:1 92:1 184:2 
1 1 1 189:1 
1 0 0 26:4 45:2 67:3 69:2 72:3 131:4 138:6 142:1 143:1 160:1 196:1 
1 1 1 26:3 43:1 52:1 188:7 
1 1 1 24:2 33:1 131:3 178:1 
1 0 0 13:3 46:1 48:3 54:4 92:1 142:1 143:2 145:1 170:1 181:3 197:1 
1 1 1 33:2 52:1 66:1 88:1 163:1 
0 0.4724251760667382 0.2024184813739081 9:2 36:3 38:1 43:2 54:2 77:6 84:1 
1 1 1 46:1 48:1 70:1 86:1 107:1 119:1 143:1 145:1 171:2 
1 0 0 8:1 10:1 15:1 16:2 17:1 18:1 19:1 20:1 21:1 22:1 23:1 24:2 25:1 27:1 28:2 31:2 32:1 34:1 45:1 46:2 47:1 50:1 54:2 138:1 184:1 
1 1 1 33:2 69:1 
1 1 1 24:1 67:3 99:1 142:2 147:1 170:1 
1 1 1 6:4 9:1 36:1 45:1 
0.7593797473580693 0 0 24:1 28:1 33:2 54:5 69:8 70:7 83:3 131:4 138:16 143:1 149:1 163:1 179:1 
0.9243128698043481 0.7571784221288383 0.3794921452762368 6:2 9:8 13:19 26:2 33:3 36:11 38:29 48:19 49:13 52:5 54:71 61:16 62:12 64:2 66:3 69:4 83:4 87:5 92:2 99:10 101:2 143:1 145:2 156:1 171:1 175:3 184:1 187:4 190:3 
0.3643518590075058 0.3625741061080175 0.1436299207804025 6:2 9:8 13:14 38:2 48:14 49:1 52:3 54:11 61:8 62:6 66:1 67:1 81:1 110:1 
1 0.6103152580823654 0.5988934174862388 9:2 36:2 43:1 49:2 54:2 64:1 84:1 92:2 99:2 
1 1 1 8:1 83:2 189:1 194:1 
1 1 1 10:1 26:4 33:1 54:1 69:3 81:1 117:1 197:1 
1 1 1 13:3 24:1 82:2 
1 0.2958365777133413 0 54:10 64:3 112:1 119:1 124:1 169:8 195:2 
1 1 1 2:1 13:1 48:1 67:1 69:1 73:1 90:1 164:1 
1 1 1 50:1 143:1 
0.7948458176730495 0.6511466659282901 0.3262074972847722 6:3 9:7 24:2 26:1 36:3 38:28 43:2 45:8 49:30 52:1 54:28 61:33 62:2 64:3 67:2 77:1 87:1 98:1 99:27 
0.8088918390391804 0 0 8:1 10:1 13:2 15:1 16:2 17:1 18:1 19:1 20:1 21:1 22:1 23:1 24:2 25:1 27:1 28:2 31:2 32:1 34:1 36:1 45:1 46:2 47:1 48:1 50:1 54:5 66:1 70:1 73:1 82:2 101:4 104:1 124:2 145:3 156:1 175:5 177:1 184:1 187:1 194:2 
1 1 1 19:1 62:1 132:1 153:2 
1 1 1 54:2 64:4 77:3 
1 0.2243756527811109 0 33:1 46:9 145:3 170:1 
1 1 1 99:1 119:1 131:1 137:1 153:1 160:1 170:1 196:9 
1 1 1 46:4 54:1 83:2 187:2 
1 1 1 13:1 38:1 48:1 54:2 61:2 
1 0.2902637598932128 0 54:13 70:1 99:1 138:2 145:1 147:1 160:2 171:2 175:3 195:1 196:1 
0.9137566213909347 0.7484649997318078 0.3748515454445355 6:1 9:41 24:1 36:5 38:45 43:2 45:1 49:1 52:1 54:11 61:12 62:2 64:4 77:10 84:1 87:1 98:1 
0 0.1809878889243287 0 24:1 36:2 38:2 54:1 64:2 67:1 77:13 
0.6004087766312673 0 0 36:2 52:1 54:13 62:9 81:1 92:3 99:1 117:1 
0.7634087632626985 0.3686022301480473 0 2:1 6:1 9:1 24:4 36:7 48:14 54:3 65:1 72:1 101:2 115:1 131:2 145:2 170:2 171:1 178:2 183:1 184:1 187:1 189:1 195:1 
0.6533972677557929 0.1054657215441858 0 8:2 33:7 46:1 54:1 87:1 111:2 138:10 143:2 145:2 146:2 160:3 163:2 167:1 175:6 177:3 184:2 
1 0.6190277441224353 0.2916772947034935 12:13 80:7 88:13 101:1 124:11 145:1 146:4 160:1 167:5 171:4 175:3 196:1 
0.07912322246508061 0 0 6:14 8:1 10:1 13:4 15:1 16:2 17:1 18:1 19:1 20:1 21:1 22:1 23:1 24:6 25:1 26:2 27:1 28:2 31:2 32:1 33:1 34:1 45:1 46:2 47:1 48:1 49:1 50:1 52:1 54:5 62:3 66:1 69:7 72:6 81:2 82:6 87:1 90:1 99:1 101:1 175:1 181:1 197:1 
1 0 0.2066359489776216 33:1 54:1 83:1 119:1 175:2 187:10 194:1 
1 1 1 22:1 46:1 80:3 127:5 179:3 
0.2265845442391208 0.124079844235692 0.002359094623828595 9:14 36:4 38:16 43:1 45:1 52:1 54:8 62:1 64:5 77:9 84:1 98:1 
0.8810165389833488 0.6962728603762469 0.3522661514967128 6:2 9:8 31:2 36:12 38:19 43:3 45:1 54:26 62:2 64:11 67:3 77:15 84:1 98:1 163:1 
1 0 0 6:1 17:1 26:2 33:3 38:2 54:6 61:1 81:1 179:1 
1 1 0.8825899498883885 70:2 80:5 88:3 160:1 167:2 171:1 
1 0.1424051788200791 0 26:1 54:10 62:10 87:1 103:1 160:1 
1 0.3853485753216356 0 9:2 36:1 38:1 49:3 52:4 54:2 61:1 62:1 66:1 99:1 181:2 
1 1 0.1946832745037963 83:3 101:6 153:1 156:1 185:1 187:6 
1 1 1 70:1 99:1 147:1 
0.2664734918532574 0.4135514175158988 0 24:1 67:20 99:1 101:2 131:1 142:1 156:1 190:6 
0.9190299641016605 0.752500855508213 0.3769440242213589 6:47 9:23 17:1 26:8 31:3 36:15 38:83 43:14 45:4 49:32 52:8 54:42 61:20 62:3 64:20 67:14 77:4 81:1 84:1 87:3 98:1 99:30 101:23 142:1 163:1 175:2 197:2 
0.7708439606714764 0.6315531780138576 0.3160637055920293 6:8 9:21 36:8 38:23 43:4 45:3 49:27 52:9 54:16 61:23 62:8 64:2 66:2 67:2 77:1 79:1 84:1 87:5 92:1 98:1 99:20 101:2 152:1 
0.6698519448436607 0.5305529671849549 0.2705503599025658 13:19 48:19 66:4 73:1 
1 1 1 2:1 67:3 138:2 150:2 175:3 
1 0 0 6:1 9:2 36:3 43:1 54:5 64:2 84:1 87:1 184:1 
1 0.417749446243165 0 6:1 12:6 54:1 70:3 72:1 80:2 88:15 99:1 124:3 146:2 147:1 167:3 175:1 189:2 
1 0.07496312886820805 0 6:1 9:1 26:2 38:1 52:2 54:3 61:1 62:4 82:1 
1 1 1 175:2 179:1 
1 1 1 87:1 
1 1 0 6:4 54:4 67:2 87:2 
1 0.3517021622166558 0 24:1 44:1 54:1 72:1 83:2 87:1 143:11 171:1 187:2 
0.8971715917226364 0.734652842633342 0.3677439654292993 6:8 9:28 24:3 26:2 31:1 33:1 36:14 38:31 43:5 45:6 49:38 52:4 54:36 61:31 62:14 64:5 67:4 77:3 81:2 84:1 87:1 92:2 98:1 99:37 
0.7826104698908369 0.7231020848311686 0.3644008546298412 6:4 8:1 26:1 33:4 52:1 54:14 62:30 67:2 69:1 72:1 81:3 88:1 103:1 138:2 170:1 
0.7706076259154917 0 0 8:1 24:5 33:4 52:1 54:3 83:4 87:1 92:2 124:1 145:4 173:1 175:8 185:1 187:3 196:1 197:1 
1 1 0.05435379110361076 26:1 67:1 69:1 72:1 131:1 138:8 152:3 
0 0.5504309245265684 0 8:1 10:1 15:1 16:2 17:1 18:1 19:1 20:1 21:1 22:1 23:1 24:2 25:1 27:1 28:2 31:2 32:1 34:1 45:1 46:2 47:1 50:1 82:2 160:5 180:1 187:4 
0.6406624733771291 0.524627189670806 0.2627037358644131 6:5 9:16 24:4 26:4 36:10 38:25 43:6 45:5 49:33 52:6 54:21 61:24 62:3 64:5 67:2 77:1 84:1 87:1 92:1 98:1 99:32 175:1 
1 1 0.4959282638208089 33:3 49:1 54:2 92:2 149:1 175:1 
0.4826370680902012 0.3968157211130296 0.1987852278426318 9:5 13:35 48:35 152:1 154:3 
0.9095303211584708 0.7453031082718213 0.372854998913932 6:5 9:34 33:1 36:7 38:32 43:4 45:1 49:11 52:4 54:20 61:20 62:3 64:6 67:1 77:3 84:1 98:1 99:9 101:17 175:1 
1 1 0 33:4 54:2 67:1 
1 0 0 32:1 82:1 90:1 138:7 143:8 196:4 197:1 
0.9241813958733424 0.7571873466542083 0.3796719814266636 6:128 9:28 13:4 33:1 36:44 48:4 54:16 67:1 87:15 
1 0 0 36:1 52:2 54:6 67:3 83:3 90:2 92:1 
1 1 1 69:1 88:1 143:1 
0.1784401379785144 0.2843304803146215 0.1514259394980099 8:2 10:2 13:9 15:2 16:4 17:2 18:2 19:2 20:2 21:2 22:2 23:2 24:4 25:2 26:1 27:2 28:4 31:4 32:2 33:5 34:2 38:4 45:2 46:4 47:2 48:8 49:1 50:2 54:20 61:1 62:1 66:5 69:1 73:2 83:3 87:2 92:5 145:2 152:1 187:3 
0 0 0.1965569058187447 8:1 10:1 15:1 16:2 17:1 18:1 19:1 20:1 21:1 22:1 23:1 24:2 25:1 27:1 28:2 31:2 32:1 34:1 45:1 46:2 47:1 50:1 
1 0 0 8:1 33:5 70:2 83:1 99:3 131:2 143:1 148:1 
1 0.7818299502442877 0.3352997273830763 17:1 24:3 83:3 142:2 148:22 184:6 185:3 
0.9185815903608294 0.7524946314816651 0.3773581024519485 6:33 9:14 17:1 26:2 31:2 36:8 38:100 43:8 45:3 49:23 52:6 54:43 61:24 62:7 64:24 67:14 77:6 84:1 87:4 98:1 99:19 101:30 112:1 163:1 175:2 197:3 
1 0.5142068459230908 0.1062003395052503 67:2 69:3 82:1 131:1 170:1 187:5 
1 0.5867258287839835 0 9:1 12:1 24:1 36:1 45:11 54:6 70:2 83:1 104:1 112:3 131:3 133:1 142:2 143:2 145:3 149:1 156:8 160:1 170:1 171:1 185:1 195:1 196:7 197:3 
0.3475121991795524 0.3060215064429442 0 2:1 24:2 32:1 43:1 67:12 72:1 101:1 131:1 138:2 141:1 142:1 156:2 160:2 175:1 177:1 185:4 189:1 190:5 194:2 195:1 196:1 197:1 
0.5001394934029131 0.1756794023034505 0 6:1 8:2 10:2 13:6 15:2 16:4 17:2 18:1 19:2 20:1 21:1 22:2 23:1 24:8 25:1 27:2 28:2 31:2 32:1 33:1 34:3 36:1 45:1 46:4 47:1 48:3 49:1 50:2 54:18 66:1 70:1 73:3 82:2 83:1 104:3 143:9 145:1 171:1 184:1 190:1 
0 0.8202997413544481 0 2:2 9:2 36:2 43:1 45:1 49:3 54:3 62:1 64:2 84:1 92:1 98:1 99:3 
0.3535567315890432 0.1727454084376721 0 6:2 8:4 13:8 33:3 43:1 48:8 54:16 62:4 66:6 69:10 70:4 82:2 83:1 90:1 131:1 138:1 152:3 197:1 
1 1 1 2:1 33:1 46:1 72:1 145:1 147:1 154:1 156:2 170:2 197:1 
1 1 1 138:2 143:1 
0.2086165065777219 0.8193625422012859 0.9401031149263629 8:1 10:1 15:1 16:2 17:1 18:1 19:1 20:1 21:1 22:1 23:1 24:2 25:1 27:1 28:2 31:2 32:1 34:1 45:1 46:2 47:1 50:1 
1 0 0 13:1 24:3 33:1 38:1 48:1 54:4 66:1 69:1 70:1 73:2 160:1 
1 0.6513631183875471 0.334354433356964 9:1 24:1 33:1 38:1 43:1 52:3 54:37 61:1 66:1 67:5 70:4 92:1 138:2 165:2 169:2 171:1 175:3 
1 1 1 10:1 67:2 72:1 187:2 
0 0.4930263402159545 0 2:1 8:1 13:6 26:1 48:5 54:1 73:6 90:2 154:1 164:1 196:1 
1 0.4217258974936177 0 45:1 54:1 60:1 70:6 80:10 83:8 86:1 103:3 104:4 133:2 142:1 143:1 185:1 188:1 189:2 197:1 
1 1 1 43:1 196:1 
1 1 1 13:1 26:1 73:1 
0.689594395709029 0.5541844373803859 0.1791059045542921 6:3 8:7 9:1 26:2 33:6 38:10 46:1 49:1 52:8 54:4 61:10 62:4 67:12 81:3 83:7 99:2 152:1 154:2 175:12 181:1 187:1 189:1 194:1 196:2 197:2 
1 1 1 69:1 138:2 152:2 181:1 185:1 
1 1 0 8:1 10:1 15:1 16:2 17:1 18:1 19:1 20:1 21:1 22:1 23:1 24:2 25:1 27:1 28:2 31:2 32:1 34:1 45:1 46:2 47:1 50:1 156:1 184:1 
1 1 1 45:1 99:2 131:6 143:4 170:2 
1 1 1 48:1 101:1 170:1 197:2 
0.3839217013646307 1 0.9763200928825556 9:2 13:1 36:2 38:3 43:1 48:1 52:1 61:4 
1 1 1 8:1 33:2 69:1 70:1 82:1 138:2 181:1 190:1 
1 1 1 80:5 88:2 
1 0 0 9:1 13:4 22:1 24:1 33:1 38:2 45:1 48:4 49:1 52:1 54:21 61:2 62:5 64:1 77:1 87:1 
-0.1271930980680572 0.05498910799807833 0.4831308616388102 12:2 54:1 79:1 83:1 86:9 101:1 103:1 142:2 168:2 170:1 193:8 197:2 
-1 1 1 34:1 70:1 170:1 
-0.1592006698001574 0 0 54:12 70:2 72:1 101:1 143:1 146:1 165:1 169:1 170:1 175:2 182:1 197:1 
-0.01114584475214393 0 0 12:2 70:1 71:2 80:8 83:1 103:3 138:6 142:1 143:1 149:1 158:1 190:1 197:2 
-1 1 1 33:2 54:2 70:1 160:1 
-1 1 1 103:1 
-0.7248656372591329 0.6247938748498489 0.2674078026096546 12:4 33:2 44:2 52:3 54:19 66:2 67:2 70:1 72:1 82:1 83:3 101:5 123:1 131:2 138:4 145:1 156:8 168:1 170:1 171:5 175:12 184:5 185:1 187:1 188:4 193:5 197:2 
-0.8429748510374832 0 0 24:1 46:1 72:1 80:1 83:2 99:1 137:1 138:2 142:1 143:8 145:2 167:1 190:1 
-1 1 0.1392240220844612 33:1 54:2 72:1 138:1 149:4 190:1 197:1 
-0.3868280174203429 0 0 19:1 24:1 54:3 70:2 71:3 72:1 131:1 149:1 170:2 171:2 181:1 184:1 187:2 196:1 
-1 0.8448812073580987 0.4609782908365989 8:3 12:11 24:1 33:4 34:10 46:1 48:2 50:1 54:7 70:5 71:5 72:3 75:2 80:16 83:7 86:3 87:3 88:25 101:23 103:3 104:11 112:3 124:47 131:3 142:1 143:21 144:1 145:3 146:4 147:4 148:2 156:21 158:2 160:3 167:31 169:3 171:3 175:16 179:1 185:4 187:1 188:3 189:4 190:24 194:2 196:8 197:4 
-0.708772709044929 0.901643328565468 0 45:4 67:1 83:1 96:1 101:1 103:7 133:1 142:1 143:1 144:1 147:7 156:4 163:1 166:1 168:4 179:2 189:6 196:1 197:1 
-1 1 1 24:1 46:1 127:1 131:2 147:1 161:1 163:1 171:2 179:2 
-0.9094710619626696 0 0 9:2 33:1 46:1 49:1 54:3 61:1 62:1 66:3 72:1 101:6 131:3 143:1 145:1 156:1 167:4 195:1 197:1 
-1 1 1 28:4 34:1 72:1 103:1 135:1 148:1 
-1 1 1 33:2 45:2 50:1 54:1 132:1 142:1 184:1 
-1 0.600734180077428 0.2627284226319864 9:10 32:1 36:9 38:3 46:1 54:20 64:7 72:4 131:1 177:1 181:1 195:2 
-0.2694610313447385 0 0 12:9 45:9 54:4 72:1 80:4 86:9 88:2 103:1 104:1 142:1 156:1 170:1 172:1 182:1 184:4 187:1 
-1 0 0 8:3 38:1 52:1 54:7 62:2 64:2 80:4 83:1 148:1 175:3 187:2 196:1 197:1 
-1 0.8108182800271264 0.4425571127335002 49:1 66:2 67:2 69:1 92:2 131:5 138:43 156:1 160:3 175:1 187:1 196:1 
-1 1 1 2:2 54:1 96:1 142:1 163:1 
-0.7549833471435009 0.6030267683844293 0 24:1 33:1 45:1 96:5 104:4 124:1 142:1 143:9 147:2 154:1 162:1 163:4 171:2 
-1 0 0 33:1 44:1 52:2 54:6 62:1 66:1 67:1 72:2 83:1 88:1 90:1 131:1 138:3 156:1 171:1 175:2 181:1 188:1 197:1 
-0.3507627871710987 0.08099754262070477 0 12:3 36:1 54:5 70:4 83:2 87:1 101:2 119:2 124:2 143:2 156:5 167:2 175:1 187:1 189:1 194:16 
-0.3317140338261589 0.8819073932974473 0.03395711053520662 62:2 72:2 80:6 88:1 170:1 182:1 
-0.09245067471666835 0 0 54:5 71:13 72:1 83:3 131:4 138:3 175:2 181:1 188:5 196:2 
-0.4965900122527085 0 0 32:1 33:1 54:8 66:1 70:1 72:1 79:1 83:2 138:3 165:1 169:1 171:1 188:1 
-0.3179344745250233 0 0 12:3 54:1 80:5 88:6 142:2 175:1 179:1 185:3 
-1 1 1 45:1 54:1 64:1 83:1 112:1 138:1 158:1 165:1 169:1 
-0 0.09602164898918321 0 45:2 72:2 79:1 142:2 143:1 144:5 158:2 170:1 190:7 196:1 
-1 1 1 33:1 54:1 72:1 87:1 104:1 143:2 154:1 184:1 190:1 
-1 1 1 24:1 83:2 
-0 1 1 12:1 112:2 156:1 190:1 197:1 
-1 1 1 46:1 104:1 143:1 
-0 1 0 54:2 70:1 72:1 131:1 170:1 181:1 194:4 
-1 0.9414622831070889 0 54:3 62:2 64:3 72:1 124:1 127:4 131:1 169:1 195:1 
-1 1 1 80:2 160:1 197:1 
-0.0005411465562593196 0 0 12:2 24:1 46:1 50:1 54:3 70:1 72:1 79:1 83:1 86:10 101:1 103:1 115:1 138:1 142:1 156:1 170:1 187:2 189:1 197:1 
-1 1 1 31:1 54:2 72:2 
-0.9751382967713835 0.7406494119058418 0.4168610227270292 12:1 33:3 44:1 45:1 54:29 70:1 72:2 83:2 86:10 103:1 115:18 127:1 131:1 142:2 143:1 156:1 165:2 169:2 171:3 181:1 185:2 189:3 191:1 192:1 194:1 197:1 
-1 1 1 32:4 47:1 95:1 107:3 131:1 142:2 147:1 170:1 
-1 1 1 2:1 47:1 72:1 79:2 147:1 156:1 177:1 187:1 
-1 0 0 6:1 17:1 24:1 26:2 33:5 38:1 44:1 46:1 49:1 52:1 54:11 62:1 66:1 67:2 72:2 80:1 88:6 92:1 101:4 124:2 131:1 138:1 146:2 171:1 181:1 190:1 195:1 
-0.2814161216149509 0.1664054788488503 0 24:1 54:3 72:2 83:2 143:1 175:3 
-0.08208695768017633 0 0 12:4 34:1 45:5 54:2 65:2 71:2 79:1 80:4 88:7 101:1 110:1 124:5 131:9 142:1 143:1 144:3 145:2 146:2 148:11 156:6 158:1 175:1 189:3 190:1 196:1 197:1 
-0.7472252744821009 0.3132212394157294 0.1301757658962858 40:4 68:1 70:15 71:1 72:1 75:1 79:3 83:2 89:2 103:1 104:1 148:1 158:1 175:3 185:1 194:2 
-1 0.1232686223694217 0.2236487233040732 54:4 80:2 131:1 142:1 196:9 
-1 1 1 152:1 194:1 
-1 1 1 1:1 48:2 
-0 1 0.1394882061517355 101:2 104:1 143:3 175:2 190:1 197:1 
-1 0.8418473695230553 0.4573207814116296 8:1 24:4 33:33 34:1 36:2 38:1 54:8 62:2 66:1 67:1 70:4 79:1 86:1 101:1 112:5 131:6 138:15 143:2 145:1 146:1 149:1 178:1 181:1 193:3 197:2 
-1 0 0 9:2 12:1 27:2 31:2 32:1 33:1 38:1 42:1 43:5 44:2 46:1 48:1 49:1 52:2 54:12 62:1 64:6 66:1 70:1 72:1 83:3 92:3 99:6 101:2 119:1 127:1 138:1 143:1 145:1 148:2 156:1 169:1 171:4 184:2 187:8 197:2 
-1 1 1 70:1 131:1 143:1 156:2 194:2 
-0.5332670883599852 0.414495055140885 0.2287441909174668 12:21 47:1 54:19 71:1 86:29 101:12 103:1 104:7 112:1 115:3 124:1 138:1 142:12 143:5 145:3 156:6 165:2 168:4 169:5 170:1 171:3 175:1 187:8 193:2 196:2 197:1 
-1 1 1 24:3 83:2 101:1 
-0.3706077375808003 0.3613962228673375 0 12:5 24:1 45:1 103:1 142:1 156:8 167:7 175:9 185:1 197:2 
-0.7744260798962501 0.296698847717106 0.104750487021325 54:1 62:1 70:1 71:3 72:2 83:11 88:17 101:1 143:1 145:4 156:1 184:1 187:2 188:3 196:1 
-0.5615894622760984 1 1 1:4 35:1 40:4 41:3 45:1 57:1 74:8 89:5 101:4 137:3 144:6 148:1 197:2 
-1 0.2070078585965086 0 8:1 45:1 47:1 54:21 65:1 138:1 156:2 195:1 197:3 
-0.5739041007985227 0.2868308255373474 0 12:7 24:1 54:2 65:1 70:2 83:2 86:1 112:7 142:1 149:1 156:3 160:1 168:9 170:1 171:1 187:1 188:2 189:1 193:15 197:2 
-1 0 0 54:5 104:1 142:2 143:2 145:1 170:1 194:1 
-1 0.8447477348901663 0.4600797624728109 1:1 2:1 9:2 24:3 33:7 40:2 45:1 46:1 48:1 50:1 54:1 62:2 79:1 83:3 87:2 92:4 99:6 101:1 103:2 104:2 107:16 112:1 113:1 128:1 138:11 143:8 147:33 153:6 156:4 160:2 163:1 177:1 184:3 187:1 
-0.5490695616810131 0 0 17:1 54:6 62:1 76:1 88:6 124:2 138:4 160:2 167:2 170:1 171:1 175:1 
-0 0 0.3409212258018902 12:1 62:3 71:5 72:1 88:5 126:1 143:1 149:1 
-0.7030400487296299 0.4578238523827634 0.2725273740527329 2:1 44:1 47:1 57:1 60:1 70:1 83:6 88:1 137:1 143:6 145:1 146:1 149:2 156:1 169:1 171:10 175:2 178:1 184:4 187:7 190:2 194:15 196:4 
-0.9480788136223747 0.7432593175440787 0.4137503080486421 8:1 12:16 32:1 54:6 79:1 83:1 86:15 115:20 131:1 142:4 143:1 165:1 169:1 170:1 187:6 192:5 197:3 
-0 0.3021170539140985 0 72:1 115:9 170:2 182:1 
-0.3496708081662184 0 0 12:5 54:5 70:2 72:1 80:6 88:11 101:1 124:6 142:1 143:1 146:6 148:4 156:3 160:1 167:1 170:1 171:2 175:2 181:1 187:1 189:2 194:1 195:1 
-1 1 1 137:1 160:1 
-0.1959298483571525 0 0 54:3 71:3 79:13 83:9 101:1 147:1 156:1 177:1 184:1 185:2 187:4 188:4 194:1 
-1 1 1 45:1 65:1 131:1 168:2 190:1 196:2 
-1 1 1 54:2 72:1 182:1 
-1 1 0.9753296359544745 45:2 101:5 112:1 
-0 0.4045179874021311 0 4:1 70:1 72:1 131:7 138:2 170:1 
-1 1 1 135:1 175:1 179:1 
-0.7628757761473592 1 1 72:1 127:2 131:3 177:3 178:1 179:1 
-1 1 1 46:6 79:1 86:1 
-0.7149480820807068 0.1141915471901687 0 12:8 80:12 146:2 175:1 
-1 1 1 72:1 74:2 148:1 170:2 
-1 0.8425374426061838 0.4601221506193543 12:22 44:1 45:3 46:1 54:5 70:15 72:5 80:21 83:1 88:36 99:2 101:3 107:1 115:1 124:12 142:3 146:1 147:1 156:5 160:1 167:1 171:2 175:1 183:1 185:7 189:3 
-1 0.8573019144146752 0.03908060687700988 83:6 119:1 156:1 185:5 187:2 
-1 1 1 27:1 50:1 107:2 148:3 149:2 152:2 
-1 1 0.02425677096727423 54:2 69:1 83:1 101:1 112:3 145:1 175:1 
-0.5396968105408664 0.4282516560556655 0.2315262561420696 12:21 47:1 54:19 71:1 86:29 101:12 103:1 104:7 112:1 115:3 124:1 138:1 142:12 143:5 145:3 156:6 165:2 168:4 169:5 171:3 175:1 187:8 193:2 196:2 197:1 
-1 1 0.2296431171490206 138:2 142:8 143:1 178:1 
-1 0 0 54:1 70:1 86:2 88:1 101:1 104:1 138:8 145:1 165:1 169:1 172:1 175:2 196:1 
-0.6339195302920423 0 0 54:1 62:1 72:2 115:1 138:5 144:1 170:2 182:1 189:1 
-1 1 1 54:1 104:1 138:1 145:1 196:1 197:1 
-0.3247264366443588 0.726147708387973 0 47:1 54:1 71:5 83:1 138:3 170:1 194:2 
-1 1 1 62:1 72:1 103:1 115:2 138:1 144:1 170:1 188:1 189:2 
-1 1 1 79:2 83:1 88:1 170:1 187:1 189:1 
-0.04183005484454026 0 0 54:5 83:13 88:1 104:1 124:1 131:4 138:7 143:6 144:1 148:3 149:6 171:1 184:7 185:1 
-0.9619269936951429 0 0 12:1 33:1 54:5 124:2 142:2 149:4 175:1 190:1 197:1 
-0.6194731860732989 0.2625543726311604 0.1513881642966939 12:2 54:1 79:1 83:1 86:4 115:6 138:3 149:1 169:1 170:1 187:5 189:4 191:3 192:15 197:1 
-1 1 0.5885039574127005 127:16 137:1 143:1 166:1 
-1 1 1 67:1 197:1 
-0.05850711530723317 0 0 46:2 54:5 72:1 83:1 86:3 103:1 104:5 115:7 142:1 171:1 181:1 185:6 187:1 189:2 194:1 196:2 
-1 1 1 99:2 142:1 143:1 
-0.7229536337184875 0.5240628655429191 0.2403397165503138 12:1 32:1 44:1 54:1 67:1 70:1 72:1 80:1 86:2 103:1 112:2 115:17 131:3 138:2 142:2 145:2 156:13 165:1 168:10 169:1 170:1 188:3 189:1 192:3 193:3 194:1 196:1 197:3 
-1 1 0 12:1 46:1 47:1 67:1 107:2 112:3 135:1 156:2 171:1 190:1 194:1 
-0 0 0.02476697196872344 12:3 83:2 86:4 103:6 104:1 144:5 184:3 197:1 
-1 1 1 50:1 160:1 196:1 
-0 0.03498200174871097 0 71:2 80:1 83:4 87:2 142:1 152:1 184:5 185:7 189:1 197:1 
-1 1 1 54:1 124:1 138:1 148:1 196:1 
-0 1 0.7655702347266032 79:5 101:2 127:1 
-1 1 1 103:1 131:1 
-0.306987563335821 0 0 8:1 12:1 34:1 54:3 101:6 127:3 135:1 164:3 175:1 194:4 197:1 
-0 1 0.7893928672238133 12:3 142:1 168:5 179:1 189:1 
-0 1 1 44:1 71:1 83:3 142:1 171:1 196:2 197:1 
-1 1 1 11:2 40:1 54:1 65:1 70:2 75:1 89:1 195:1 
-0.5987052705803247 0.2269902379452974 0.003708791450662048 12:2 45:2 54:7 70:3 72:1 86:1 104:3 112:4 115:2 143:1 145:1 156:1 160:1 168:18 181:1 189:3 193:2 194:4 195:1 
-1 1 1 107:1 108:1 127:1 161:1 197:1 
-0 0.7797251595754557 0 70:1 88:5 101:3 104:1 146:2 158:2 175:1 
-1 1 0.9481093418837987 65:1 67:3 131:1 145:1 169:1 184:6 
-1 1 1 72:1 88:1 167:1 
-0.6779648681482026 1 1 12:1 45:1 72:1 115:1 170:1 182:1 
-0.8206154656832889 0 0 36:1 46:1 83:1 88:2 124:1 143:2 145:4 146:3 156:1 158:1 167:1 171:1 187:1 188:1 190:2 197:1 
-1 1 1 50:1 83:1 152:1 189:1 190:1 
-0.7432793814808687 0 0 24:1 54:4 83:1 88:1 131:2 138:5 143:2 145:1 175:1 184:5 187:2 
-1 0.8444900474966117 0.4612318446458712 12:1 26:1 28:1 33:1 38:2 44:1 48:1 54:22 71:2 83:12 86:65 107:1 112:1 115:7 131:4 138:3 142:2 143:5 145:2 147:1 156:2 170:2 171:6 178:1 188:1 189:1 190:1 191:3 193:3 194:4 
-0.911282312082481 0.7483949036131188 0.4163396724617876 8:1 12:17 45:3 54:1 70:3 71:1 80:9 83:1 88:12 101:6 103:1 104:6 112:1 124:7 131:1 138:1 141:1 142:3 143:2 145:2 146:4 147:3 151:1 156:19 163:3 167:4 175:16 184:2 185:1 189:4 190:2 196:2 197:4 
-0.5047242778210788 0.4436081400803017 0.1616767346113001 9:1 12:5 52:1 54:16 67:1 72:1 80:14 88:2 103:1 124:2 131:1 138:2 142:1 143:1 148:1 149:1 153:1 156:5 158:1 168:1 171:3 181:1 187:7 197:6 
-0.6305424673783064 0.2402576330929992 0 8:1 33:2 38:1 54:2 70:6 71:2 72:1 79:2 83:16 87:1 88:1 124:1 138:2 143:2 185:1 188:9 190:6 196:2 197:1 
-0.03303822745425308 0 0 52:1 54:2 72:1 80:8 83:2 88:8 92:2 99:1 124:1 131:1 138:2 142:1 145:2 146:3 156:2 158:1 171:4 185:2 
-1 0.7576895675340191 0.4118801502641496 54:4 72:3 80:16 88:10 101:1 124:2 131:1 143:7 144:1 148:23 149:4 156:4 170:2 175:1 182:1 189:2 197:2 
-0.3753585523821261 0.5056856148721357 0.3064421113743866 34:1 62:3 83:1 103:1 115:5 172:1 191:2 192:5 197:1 
-1 1 1 12:1 70:2 72:1 80:2 88:1 
-0.4246388383479508 0.2281235246817513 0.0745263334076162 9:2 12:1 31:1 36:1 44:1 49:1 50:1 54:21 71:6 72:2 83:1 86:6 115:7 119:1 138:3 143:4 145:1 171:3 177:1 191:4 194:1 197:2 
-0.5743274223936258 0.0790871256077736 0 6:1 12:2 24:1 26:1 33:1 49:1 52:4 54:6 64:1 66:1 67:1 72:1 79:8 80:3 81:1 90:1 101:1 115:9 131:9 138:9 148:1 156:3 165:1 168:2 169:1 172:1 175:5 189:3 191:3 192:1 193:1 197:5 
-0.8366533543360875 0.5555115707559571 0.2542827762886761 13:1 54:23 70:4 71:2 72:2 83:3 119:1 148:13 161:2 171:1 184:4 187:1 188:1 189:1 
-1 0 0 24:1 54:10 62:1 70:1 72:1 83:3 143:2 170:1 172:1 175:4 182:1 185:1 195:1 
-0.4365477557699017 0.1781692646484717 0 45:1 71:1 80:1 83:12 152:1 180:1 184:12 185:6 187:1 
-1 0.844148702098152 0.4603434306214877 45:1 62:1 71:1 80:48 83:7 86:1 103:4 137:1 143:1 144:4 167:1 185:5 188:1 
-1 1 1 72:1 160:2 
-0 1 0.7907261952914217 12:2 70:2 72:1 80:2 88:1 142:1 
-0.9745221090818013 0.7403680370272921 0.3899472991456513 12:14 62:1 70:1 71:1 79:5 83:9 86:2 88:1 96:2 101:9 103:1 104:8 143:1 144:1 145:1 148:1 149:1 152:1 158:20 197:2 
-0 0.2086363578974772 0.1660554850667061 12:7 112:1 149:1 197:1 
-1 1 1 83:1 187:1 
-0.9969373105424585 0 0 33:1 44:2 46:1 54:2 70:1 72:1 83:4 138:7 143:3 145:1 149:1 171:1 190:2 
-1 0.5643495652483527 0 24:2 54:2 70:1 124:1 131:4 140:1 143:2 154:1 187:1 189:1 
-1 0.8106974706177077 0.4424504700086607 12:3 45:3 50:1 52:3 54:13 67:1 70:2 72:1 79:2 88:7 101:3 124:6 131:10 138:39 142:2 156:11 158:1 160:1 168:2 169:1 175:11 184:3 187:1 190:2 196:1 197:7 
-1 1 1 64:1 72:1 
-1 0.4463752274836147 0.2041387840398258 8:1 12:16 45:2 80:4 88:11 101:1 104:3 112:4 124:7 137:1 142:2 146:2 156:5 158:1 167:2 168:1 175:11 184:1 189:1 196:4 197:2 
-0.8124843740459891 0.6952542793182966 0 79:1 80:5 83:4 145:1 152:2 156:1 180:1 187:1 189:1 
-1 0.5012601872194486 0.7525169839807856 72:1 79:1 83:1 138:4 187:1 190:1 196:2 
-0 0.07118294490276664 0 54:1 70:6 71:1 72:1 75:2 79:2 83:1 89:2 142:1 175:2 195:1 
-0.3017410248754065 0 0 12:4 33:2 54:1 72:2 81:1 101:2 131:4 147:4 172:1 
-0 0.03907075040174601 0 12:4 50:1 88:1 112:1 143:1 148:1 156:2 160:1 167:3 185:1 
-1 1 0 31:1 52:1 54:6 156:1 184:1 197:1 
-0 0.1432098826794366 0 12:1 54:2 72:1 131:1 143:1 156:5 170:1 
-0.192207165050932 0.3456303587936868 0 12:8 72:2 80:2 88:1 96:1 103:1 131:8 132:2 135:1 138:2 142:1 144:1 147:1 156:15 170:1 171:1 189:2 197:5 
-1 0.8321562927972438 0.4552599468703194 12:2 34:1 45:7 46:1 48:4 50:1 54:1 70:1 71:5 86:1 101:4 104:2 112:1 124:14 143:4 145:2 146:5 148:5 149:10 156:1 166:3 167:15 169:1 171:2 175:25 184:1 185:5 190:3 197:3 
-1 0 0 36:1 45:2 47:1 48:4 54:1 71:1 79:1 86:1 88:1 101:2 104:2 143:1 145:2 172:1 191:1 196:2 197:2 
-1 1 1 45:1 46:1 131:2 184:2 
-1 1 0.4108743508926964 45:3 48:2 112:3 146:1 156:2 181:1 
-1 0.1686363861341844 0 52:1 54:6 64:1 66:3 69:1 70:1 131:1 138:2 172:1 175:1 188:1 
-1 1 1 24:1 143:1 170:1 
-1 0.8392118799159742 0.4582654116876708 2:1 12:6 46:4 54:1 80:3 83:1 86:2 88:38 101:2 103:2 104:5 107:1 112:4 138:1 142:2 143:2 145:2 146:5 156:12 158:5 163:1 167:1 168:1 171:1 175:1 184:3 185:6 190:2 194:8 196:2 197:6 
-0 0.524281044963534 0 45:1 80:1 101:1 124:3 145:1 156:4 167:3 195:1 197:4 
-0.6332323862134853 0.322154302019982 0.02580719679805346 24:1 44:4 45:1 70:9 71:1 79:2 83:3 101:3 107:1 124:2 131:1 156:1 160:1 169:2 171:3 175:12 187:2 194:9 195:2 196:1 197:2 
-0.9698989397126505 0 0 24:1 32:1 35:1 54:10 70:1 71:3 72:1 79:2 171:1 175:1 181:1 187:4 188:8 
-0.2967150829689886 0 0 47:1 54:3 69:1 71:2 72:1 83:1 101:1 138:1 142:6 169:1 170:1 175:1 182:2 187:1 195:1 196:10 
-1 1 1 54:1 158:1 175:1 187:1 190:1 196:1 
-0 0.9068793372022742 0 71:1 72:1 148:7 185:1 189:4 
-1 1 1 45:1 131:3 138:1 143:1 170:1 
-0.29578845970685 0 0 24:1 45:3 50:1 70:1 79:1 80:3 88:9 92:1 101:1 124:1 137:1 143:4 144:1 145:1 148:9 149:4 167:8 171:3 175:4 
-1 0.5187961001826413 0.122113964742352 6:1 8:1 9:7 33:1 36:4 38:2 43:5 49:8 54:7 62:5 64:1 67:1 72:8 92:7 163:1 170:3 177:2 187:6 195:2 
-0.9925987828064777 1 0.5888189918797492 48:2 108:1 111:2 128:12 131:1 148:1 
-0.543970471249057 1 1 104:3 124:2 156:2 188:1 
-0.3986461904213047 0.416603784214309 1 8:1 131:8 142:1 181:1 196:1 
-0.8121510296581013 0.5707013700928473 0.2557410532742977 12:9 23:1 45:2 54:3 101:12 104:4 112:5 131:2 142:1 143:2 144:2 145:1 148:1 156:12 160:1 170:1 185:4 194:1 197:16 
-0 0.6155047619030822 0.5436766932955303 12:1 44:1 115:4 138:1 165:2 169:2 170:1 171:1 172:1 193:4 194:1 197:1 
-1 1 0.2884458939256005 33:1 54:1 86:1 143:4 145:1 170:2 
-0 0.8380588576317689 0 2:1 12:1 83:1 88:2 96:1 103:3 132:1 137:1 142:5 144:1 156:1 189:1 190:1 196:1 197:2 
-0.172646482744001 0 0 12:4 33:3 36:1 54:2 70:2 71:1 83:2 86:1 103:2 104:1 124:1 131:1 142:1 143:2 145:1 167:1 189:1 190:1 194:2 196:8 197:5 
-1 1 0 26:1 54:1 66:1 67:1 69:1 72:2 90:1 138:3 170:1 182:1 
-0.1907408853702405 0 0 54:3 62:2 70:2 72:1 131:2 138:2 149:1 170:1 175:4 181:1 184:2 188:3 
-0.8878596529880023 0.7075365318765697 0.3918063964543242 12:9 62:2 71:17 79:1 86:6 103:4 104:3 115:12 181:1 191:6 192:14 
-0.1748042906416569 0 0 12:11 54:3 60:2 62:1 71:3 79:7 83:8 103:4 115:9 142:2 145:1 168:1 169:1 185:2 189:3 190:1 191:6 192:3 
-1 0.3170607633276175 0 8:1 24:2 38:1 52:1 54:3 67:5 72:1 131:16 138:1 143:1 165:2 169:2 170:1 175:3 190:1 
-0 0.2644086072866933 0 32:1 47:1 101:7 107:3 112:2 127:1 131:1 
-0 1 0 12:3 28:1 79:1 142:5 
-1 1 1 79:1 143:1 156:1 197:1 
-0.7720826718374125 1 0.6261305792305444 12:1 156:2 163:3 175:1 197:4 
-1 0 0 54:16 70:2 86:2 131:1 143:1 156:2 195:1 197:1 
-1 0.2797436724410782 0.1769935540764166 148:13 152:3 185:1 187:5 
-0 -0.4944041977547698 0 5:2 88:1 147:2 161:1 166:2 177:1 
-1 -1 1 27:1 87:1 127:2 179:1 
-0 -0 0.09487726624180055 70:1 93:1 113:1 151:1 156:1 164:18 178:1 
-1 -1 0.5489067452481086 2:43 33:2 45:1 54:2 55:2 87:1 107:1 123:7 136:34 138:2 141:1 143:2 150:2 162:2 187:1 197:3 
-1 -1 0 45:1 107:4 147:1 180:2 
-1 -1 1 131:1 190:9 
-1 -1 0.9851400015228821 33:1 79:1 101:1 156:8 170:1 
-0 -0 0.08512789045486943 4:1 93:1 137:1 151:2 154:1 163:1 183:4 
-0.4086659318255049 -0.4599444993774906 0 2:1 5:3 101:3 118:10 140:2 142:1 154:3 156:1 160:1 170:1 174:14 179:3 186:2 197:3 
-1 -1 0.4053530497973031 12:8 80:4 88:2 103:1 118:7 141:1 154:2 156:3 197:1 
-1 -1 1 2:1 107:1 153:1 166:1 
-0 -0.1971658114623232 0.2776594377213391 5:3 118:1 154:2 170:1 
-1 -1 1 131:1 147:1 177:1 
-1 -1 0.5002691329827157 5:3 54:2 93:26 118:15 140:8 142:1 154:4 156:1 173:1 186:1 197:2 
-0.9767581765500741 -1 0.4597875708326187 2:1 4:1 5:1 27:2 70:1 83:1 94:1 157:1 162:1 176:2 189:1 
-0.09413833147376985 -1 1 30:1 40:1 111:1 121:3 137:1 166:1 179:1 180:1 
-1 -1 0 5:2 24:2 64:1 78:1 111:3 131:3 138:2 151:3 166:1 178:3 
-1 -1 0.5368864662711006 2:20 36:5 39:14 40:1 54:2 55:30 87:3 94:6 107:4 113:2 128:4 136:1 160:1 162:2 164:2 183:2 184:1 
-1 -0.9093055223274394 0.4143553805827572 1:1 2:6 4:18 30:3 43:1 61:1 65:1 96:4 107:8 113:15 121:1 128:2 131:1 133:4 137:2 139:3 147:3 151:1 152:1 153:2 154:1 160:4 162:1 163:8 164:1 166:5 178:5 179:1 189:1 
-1 -1 1 5:2 33:1 36:1 38:1 45:1 49:1 54:1 87:1 140:3 142:1 
-0 -1 1 74:1 78:1 107:1 160:2 166:3 
-0.6554808514806802 -0.5167364109466994 0.4827430678743815 1:2 2:2 3:2 4:1 6:1 30:2 41:1 68:15 75:1 89:4 96:1 111:7 122:1 128:6 133:3 137:4 147:7 151:1 154:2 160:1 161:1 163:3 177:1 178:3 
-0.4928412197097098 -0.7337304244548195 0 9:2 36:2 54:3 72:1 93:5 118:1 140:1 142:1 143:1 154:7 156:1 158:1 163:1 
-1 -1 1 2:1 4:1 162:1 177:1 
-1 -1 1 111:1 113:1 137:2 161:2 163:2 
-1 -1 1 11:1 30:1 33:2 41:1 113:1 137:2 142:1 147:1 148:1 177:1 178:1 
-1 -1 0 4:1 6:1 24:1 30:1 54:4 70:1 79:1 83:1 113:1 128:2 137:3 142:1 143:1 147:1 160:1 163:1 184:1 
-1 -1 1 4:1 30:1 113:1 163:2 
-0.3238011648858141 -0.3194841174748043 0.09236006984530712 5:1 24:1 70:1 112:1 135:5 138:1 142:1 156:2 164:23 178:2 189:1 190:2 197:1 
-0 -0 0.0829286333316476 2:2 108:1 164:8 183:2 
-1 -1 1 30:1 128:2 137:1 161:1 
-0 -1 0 30:1 107:1 111:1 113:1 128:2 137:1 147:1 
-1 -1 1 5:3 147:1 
-1 -1 1 2:1 55:3 
-0 -1 0.9524077130006925 4:1 108:1 123:1 137:2 147:1 160:1 161:1 
-0 -0.21048442693412 0 2:1 5:1 30:2 72:1 107:1 113:2 160:1 170:1 
-0 -0.3841507943910295 0.2667805979215459 4:2 39:2 83:1 89:1 96:5 147:1 151:1 155:2 164:2 173:1 189:1 
-1 -0.9513000881619628 0 2:1 5:1 24:2 55:6 61:2 67:2 70:2 83:2 93:4 101:1 123:3 138:1 151:1 160:1 164:1 173:1 175:2 178:1 179:1 184:3 187:3 189:1 195:1 
-1 -1 0.8820488170274983 65:1 127:1 166:6 
-1 -1 1 1:2 35:1 41:5 45:1 50:1 65:1 74:4 76:1 97:1 160:1 
-0.734812897198574 -0.8737726678645773 0.4113787531329334 72:1 93:5 152:1 153:7 
-0.545988991953736 -1 0 5:2 28:1 50:1 86:1 93:3 103:1 108:1 118:1 135:1 154:1 156:11 171:1 173:5 179:1 186:1 188:1 189:5 194:3 197:1 
-0.381537559737433 -0.3617807854809222 0 4:4 22:1 70:3 113:1 138:1 160:2 177:1 
-1 -1 0.3670947927528399 78:1 79:1 83:4 101:1 107:1 131:7 137:2 142:1 156:1 166:3 170:1 176:9 179:1 
-1 -0.9493961149354988 0.4598763396156997 2:1 25:1 45:1 50:1 54:5 70:5 123:1 124:5 131:4 135:16 136:1 138:1 140:2 142:2 147:1 156:2 157:2 164:30 165:2 169:2 178:1 189:1 194:2 195:1 197:4 
-0.1521426607220761 -0 0 25:1 30:1 111:3 128:1 137:2 143:2 147:9 160:1 163:3 177:1 178:1 
-0.272250758191784 -0.3498140183400263 0 2:1 33:1 45:1 47:2 72:1 107:6 113:10 152:1 170:1 177:5 
-1 -1 1 2:2 80:1 137:1 180:2 
-0.02674241372799061 -0 0 5:3 33:1 101:1 118:17 140:3 154:10 156:1 160:2 174:1 175:1 186:6 190:2 197:1 
-0.1962223020805236 -0.4997722716341691 0 2:10 4:5 39:2 54:3 55:1 96:1 115:1 121:1 123:1 131:11 132:1 135:1 141:1 160:1 170:2 175:2 176:1 189:1 
-0 -1 1 4:1 93:1 137:1 151:1 177:2 179:1 183:2 197:1 
-1 -1 0.5494187473902371 2:1 9:1 36:1 54:1 67:1 79:1 88:1 93:7 101:1 112:2 118:1 136:1 140:9 142:6 147:1 154:5 155:4 156:1 173:34 174:1 184:25 186:1 187:4 189:1 190:1 197:1 
-1 -1 1 28:1 107:3 127:1 145:1 
-0.4320880436540039 -0.2682600436401162 0 2:8 30:5 31:1 43:1 48:1 54:4 87:3 94:1 101:1 136:1 141:3 152:2 155:4 156:1 159:11 160:1 161:1 162:1 178:1 197:3 
-0.1304991270874503 -0.2670690646165635 0 2:1 4:1 5:2 39:6 69:1 83:2 90:6 96:10 135:1 139:1 140:2 152:5 159:2 173:2 189:6 
-0.5384733213379339 -0 0 2:3 4:2 5:1 26:1 33:4 107:2 133:1 152:1 177:1 
-0.650396700779274 -0.4907906580125167 0.122043530972524 2:3 4:20 39:6 54:3 55:3 72:1 83:3 93:1 134:2 142:1 170:2 185:2 
-1 -1 1 2:1 4:1 39:4 150:1 185:1 189:2 
-0.4420296506630028 -0.3078625995789978 0 2:9 4:5 5:3 39:7 45:1 54:1 65:1 83:2 87:2 96:1 121:1 123:8 134:2 139:1 142:1 147:1 155:3 156:2 185:11 189:1 196:1 
-1 -1 1 2:1 4:1 55:1 131:1 152:1 189:1 
-1 -1 0.7325458722793162 54:7 136:2 147:1 162:1 164:2 171:1 173:2 175:4 179:1 194:2 197:1 
-0.07994828968691665 -0.1420270396390248 0.04992437610175886 54:2 93:2 118:16 140:3 154:1 170:1 186:1 
-1 -1 1 170:1 179:1 196:2 
-1 -1 1 5:2 142:1 180:2 
-0.8876441666249923 -1 0 2:2 4:2 54:2 72:1 83:2 99:1 108:1 113:1 127:1 131:1 147:2 148:2 154:1 156:1 160:1 164:1 171:1 
-1 -1 0 5:2 23:1 28:2 34:1 45:2 72:2 150:1 160:3 170:2 
-1 -1 1 135:1 137:1 153:1 178:2 
-1 -1 0 2:1 4:1 5:1 6:1 54:4 66:1 94:3 108:1 124:1 175:4 
-1 -1 0.5191261995386987 2:26 4:1 5:1 30:11 39:26 55:1 75:1 96:5 101:1 133:1 147:1 156:1 160:1 171:4 175:1 189:1 
-0.644271236513265 -0.4256718805829234 0.04694264886031323 2:1 4:3 24:1 27:1 94:4 107:7 111:17 113:2 121:1 128:2 133:2 137:3 139:2 147:5 153:1 161:2 178:7 
-0.2075874861967014 -0.1153620793926664 0 2:16 4:2 30:3 33:1 35:1 39:4 41:1 45:1 54:4 65:2 70:2 72:2 83:1 93:2 95:1 113:1 118:6 121:1 124:1 131:5 133:1 134:2 136:2 137:1 139:1 140:1 141:1 147:3 152:4 154:1 155:1 156:2 157:1 159:2 162:7 163:1 164:3 166:1 174:3 176:2 178:2 179:1 189:2 
-0.2244431631000795 -1 0.930805149432821 30:1 128:4 178:2 
-0.4197592166151797 -1 0 5:1 25:1 30:3 33:1 72:1 94:2 113:1 164:1 175:2 179:1 197:1 
-0.3798666777654224 -1 1 4:1 39:1 107:3 134:3 
-0 -1 0.2236914793260727 4:1 137:1 139:1 147:1 163:3 176:1 178:1 
-1 -1 1 107:1 108:1 127:1 161:1 197:1 
-1 -1 1 111:1 133:1 134:1 143:1 177:2 
-1 -1 0.542221648555467 5:1 17:2 67:1 93:3 127:1 152:4 156:1 185:1 
-1 -1 1 2:1 163:1 
-0.8490967265874028 -1 1 30:2 55:1 107:1 133:1 136:2 153:2 
-1 -1 0.5428626578214295 2:6 4:4 5:1 30:4 39:12 54:1 123:3 134:33 137:1 151:1 156:5 185:2 197:1 
-1 -1 1 151:1 179:1 
-1 -1 0.7437955514388801 2:1 48:3 121:4 160:2 170:1 175:1 
-0.9445269140941637 -0.8749804213885434 0.4164056283188646 2:26 5:2 6:1 8:2 26:1 30:1 33:5 36:2 39:7 44:1 49:1 52:1 54:5 62:2 70:1 72:1 83:3 101:1 123:7 124:2 131:2 136:3 143:3 145:2 156:7 157:2 162:1 164:3 171:4 173:1 175:3 184:1 188:7 189:2 194:1 197:3 
-0.2857655834947967 -0.04552505419994107 0 36:3 54:2 93:2 108:1 154:10 156:2 185:1 197:1 
-1 -1 1 65:1 170:1 
-0.7227912455306451 -0.6606309346975292 0.3222802126561563 2:31 4:2 30:1 39:4 45:1 67:6 94:1 96:1 127:2 133:1 135:1 137:1 141:2 155:1 175:1 177:3 180:2 196:1 
-1 -1 1 2:1 128:1 163:1 180:1 
-1 -1 1 170:1 
-1 -1 1 79:1 103:2 
-0.8278865581370766 -1 1 5:3 93:1 96:1 
-1 -1 0.7223385728467087 45:1 133:1 135:4 160:1 162:1 177:1 180:1 
-0.2760200550912548 -0.2336811896015345 0.1161999935177745 2:2 4:2 5:1 39:2 72:1 93:1 118:24 124:2 131:1 138:2 140:3 149:1 152:1 154:12 156:1 160:2 163:1 179:1 186:4 197:1 
-1 -1 1 4:1 72:1 94:3 
-0.05254530109755893 -0.7189019798140789 0.8180425739758027 2:1 8:1 133:3 137:1 154:2 160:1 196:1 
-1 -1 1 2:1 55:1 107:2 
-1 -1 1 11:1 70:1 
-0.6918585943432459 -0.3226094802627092 0.149209534076189 2:1 4:2 39:4 47:1 69:3 90:6 96:14 118:2 121:1 135:1 140:1 152:6 159:2 173:1 174:3 187:2 
-1 -0.9675669627238856 0.4580917052040423 2:2 4:2 5:3 39:1 93:1 96:1 118:32 124:3 131:1 138:2 140:6 149:1 152:1 154:21 156:1 160:2 170:1 179:1 186:1 197:1 
-0.08527322195348248 -0 0.05045261947407414 5:2 118:9 140:1 174:12 186:1 
-1 -1 1 30:1 128:2 133:1 147:1 166:1 178:1 
-1 -1 0.08223415866238888 4:1 25:1 72:1 80:1 127:3 137:2 160:1 170:1 177:1 179:1 
-1 -1 1 30:1 111:2 136:1 137:1 178:1 
-1 -0.9106048291981678 0 4:1 67:3 70:1 75:1 111:1 133:1 137:1 138:1 153:1 160:1 166:1 171:2 177:1 178:1 179:1 184:1 187:1 
-1 -1 0.8703292172044914 67:8 142:2 152:1 173:1 179:1 185:1 
-1 -1 0 33:2 36:1 54:9 70:2 111:1 123:1 124:1 133:1 135:3 142:1 143:2 147:1 156:1 157:2 161:1 162:1 164:5 169:1 197:1 
-0.837804766719808 -0.7183483006606881 0.2589371202746581 2:10 30:1 46:1 133:1 136:1 151:1 152:16 156:1 157:11 159:2 162:1 163:3 178:1 181:1 197:1 
-1 -1 1 30:1 60:1 111:2 161:1 163:1 
-0.1828758852785878 -0.1825574382874287 0.05174166726237495 2:26 28:3 67:1 83:2 101:1 112:1 123:1 131:1 133:1 136:3 156:5 194:1 
-1 -1 0.5440934366677771 2:44 4:8 5:1 27:1 30:3 48:1 50:1 55:2 83:4 87:1 94:8 96:2 101:4 107:19 112:1 123:1 127:1 128:6 133:1 139:1 147:12 148:1 153:1 154:1 163:1 166:3 171:2 177:1 180:1 189:1 
-1 -1 1 151:1 154:4 183:1 
-1 -1 1 151:1 154:2 183:1 
-0.2506776908144946 -0.2184394660595528 0.1231427666371153 2:28 39:1 55:2 67:1 83:5 94:1 96:1 
-0.3592193415483315 -0.5291462660018404 0.09427587888446977 4:3 39:7 47:1 62:1 70:1 83:2 90:2 96:14 133:1 139:1 150:3 152:2 171:1 178:1 
-0.174090228104707 -0.03294524927015163 0 2:7 4:1 39:3 48:1 54:1 67:1 75:1 83:1 96:2 123:1 132:1 141:1 143:1 149:1 150:9 153:1 181:1 189:2 197:1 
-0.4377502322266915 -1 0.9887392245991327 2:1 4:1 108:1 157:1 174:5 178:1 185:1 
-0.7205131369294203 -0.6539723491421335 0.3191973825069556 4:1 72:1 93:4 118:24 124:1 140:9 141:3 142:1 151:1 154:5 156:1 159:1 164:3 173:4 174:2 177:1 185:2 186:2 190:2 197:1 
-0.847721946755414 -0.7843188211685584 0.376041662245329 2:2 4:1 33:1 70:2 86:1 101:2 119:2 135:1 150:5 153:1 154:3 163:1 164:39 169:4 183:1 187:1 188:1 195:3 196:2 197:2 
-1 -1 1 40:1 72:1 118:2 154:1 158:1 173:1 194:1 
-0.3372734869341197 -1 0 2:2 30:1 54:2 80:1 128:1 142:4 147:1 154:2 163:1 177:1 183:1 
-0 -0 0.367584400293355 4:4 30:1 94:1 
-0 -0.001366493436903913 0 2:7 5:3 12:2 39:8 72:1 96:1 147:1 156:2 159:5 175:1 185:2 189:8 
-1 -1 1 30:1 113:1 128:2 
-0 -0.2439559187658659 0 2:4 48:2 54:1 55:3 195:1 
-0.9633425859473926 -0.8787587090058114 0.4152904374141132 2:21 4:12 30:8 39:4 45:1 55:14 83:1 86:1 94:1 96:7 101:1 123:1 137:1 141:1 147:2 151:2 156:5 163:1 164:3 175:1 187:1 189:2 
-1 -0.8587239583513285 0.3221045736726786 2:1 33:4 36:1 70:1 83:1 124:1 149:1 164:11 165:1 169:1 187:1 196:1 197:1 
-0 -1 0.2932507764242893 4:3 5:2 24:1 65:1 72:1 
-1 -1 0.9281729471608815 80:2 140:2 142:2 160:4 
-0 -0.281438342717339 1 5:3 93:2 96:1 
-0 -0.7948119461052083 0.7329373206809208 1:1 5:1 40:1 135:6 142:1 160:1 180:4 
-0.08831717779714134 -1 0.6086392241512454 2:1 5:1 133:1 157:3 163:1 177:1 189:1 197:1 
-1 -1 1 1:3 33:1 37:1 41:1 65:2 68:1 75:1 76:1 89:1 132:1 137:1 142:1 147:1 
-0 -0 0.1274539508415062 1:3 4:3 68:1 89:1 107:1 111:1 137:2 147:5 159:1 163:1 166:1 180:4 
-1 -1 1 4:1 
-0.3866516111948582 -0.3042476139755432 0 2:2 30:1 39:5 55:1 134:11 
-0.6088297421922343 -0.5459761085170203 0.1754002348146761 54:1 93:1 118:1 124:1 140:14 154:5 174:9 179:1 
-0.9291792447110374 -0.8634488971341253 0.4102412276066318 1:1 2:6 4:1 33:1 39:2 40:1 46:3 55:1 70:4 83:1 101:11 107:2 112:2 123:2 124:1 127:2 131:1 142:2 145:1 150:2 156:3 164:35 165:1 168:4 169:1 170:1 171:1 173:1 176:1 177:2 183:1 184:1 187:6 194:1 195:3 
-1 -1 1 138:1 147:1 152:2 160:2 178:1 183:1 
-1 -1 1 2:1 133:1 166:1 
-1 -1 0.4533094198886161 2:2 45:1 54:2 78:1 103:1 131:4 136:1 157:1 159:5 166:2 179:4 196:2 197:9 
-1 -1 -1 1:1 3:1 7:2 105:1 
-0.7520798089999916 -1 -1 1:3 3:1 32:1 68:7 
-1 -1 -1 1:1 7:8 40:18 41:9 60:1 75:1 89:18 131:5 148:1 166:1 170:2 
-0.8809802486812798 -0.7972603657777797 -0.7335221368832138 1:1 3:1 29:1 35:1 37:3 40:2 41:1 42:1 44:2 51:1 59:6 60:2 63:1 68:2 85:2 100:14 106:1 120:2 125:2 127:2 131:1 132:6 
-1 -1 -1 14:2 41:3 42:1 44:1 53:1 57:2 
-1 -1 -1 1:1 3:2 41:1 117:1 131:5 190:1 
-0 -0.4562923232508564 -0.7579558011161586 1:1 3:1 7:1 14:1 21:2 29:1 37:1 42:1 65:1 95:1 125:1 
-1 -1 -1 1:2 35:1 40:1 51:1 
-0 -0 -0.6566084106694677 1:1 35:2 40:1 41:2 42:1 74:3 
-1 -1 -1 1:8 37:1 57:3 59:1 63:5 85:14 102:1 120:22 126:1 143:1 
-1 -1 -1 86:1 196:3 197:1 
-1 -1 -1 35:1 44:1 53:1 65:1 170:1 
-1 -1 -1 11:1 41:2 44:2 53:4 58:2 117:4 147:1 171:2 
-1 -1 -1 3:1 56:1 97:1 154:1 
-1 -1 -1 1:1 37:2 42:1 59:1 60:1 76:1 130:1 
-1 -1 -1 1:1 40:1 41:1 42:1 74:2 
-1 -1 -1 82:3 149:1 
-1 -1 -1 3:2 44:1 60:2 65:1 91:3 102:1 127:2 
-1 -1 -1 86:1 196:3 197:1 
-1 -1 -1 1:1 35:1 44:1 74:1 78:1 110:1 117:1 119:1 
-0.7094123649843344 -1 -1 58:1 105:2 106:1 119:2 129:6 132:1 
-1 -1 -0.4436509924333537 1:3 7:3 59:2 110:2 187:6 
-0.8755643908044523 -0.7698812645659774 -0.6637476253697949 3:1 11:8 29:16 35:1 40:3 85:7 102:2 114:3 120:1 127:1 131:1 196:1 
-1 -1 -1 82:1 120:1 196:1 
-1 -1 -1 56:1 78:1 117:3 171:1 
-0 -0 -0.1120229985999025 1:12 4:1 27:1 40:4 56:1 74:1 106:1 137:2 166:5 178:2 
-0.9630910593561812 -1 -0.8727111883070944 7:1 11:9 29:1 40:1 114:1 131:2 
-0.188610587936126 -0 -0 1:3 3:1 35:3 41:4 42:1 44:4 51:2 56:13 65:4 74:2 76:3 85:4 95:2 99:1 100:3 105:3 127:1 131:1 132:1 142:1 143:1 
-1 -1 -1 160:1 
-0 -1 -0 1:4 3:1 40:1 44:1 131:3 147:1 161:1 
-0.03002543105073584 -0 -0 1:13 7:2 11:1 14:1 35:1 37:3 44:3 45:1 51:1 57:2 58:2 60:1 63:2 65:2 95:6 96:1 110:1 114:4 126:6 127:1 130:2 
-0 -0 -0.4290881011832507 1:4 3:1 40:1 95:1 106:1 108:1 163:1 
-1 -1 -1 14:1 40:1 
-0 -0 -0.1396998035820305 1:1 3:1 41:4 44:1 53:1 58:1 59:1 60:2 65:1 100:1 
-0.4826205065894597 -0.692667473857226 -0.8254711814735041 3:1 7:1 42:1 75:7 129:5 183:1 
-1 -1 -1 3:1 37:1 
-1 -1 -1 1:10 3:5 35:1 37:4 40:2 42:2 44:1 57:4 59:2 63:2 76:1 85:24 100:5 120:11 131:1 132:3 143:1 
-0 -1 -0.8917182391214841 3:2 11:1 14:1 47:1 53:2 89:3 117:1 126:1 
-1 -1 -1 14:3 40:1 119:1 152:2 
-1 -1 -1 40:2 85:2 142:1 
-0.9747140099255244 -1 -0.9781804924644684 3:3 29:1 57:1 60:1 85:1 87:1 102:6 106:1 120:1 143:1 
-1 -1 -1 3:1 129:6 137:1 
-0 -0.5922608615323741 -1 1:2 7:1 11:1 14:1 37:1 89:1 
-1 -1 -1 35:1 40:1 41:1 42:2 56:1 74:2 97:1 
-1 -1 -1 1:21 7:1 11:2 14:9 44:1 47:1 51:2 58:2 59:1 63:1 65:2 75:3 85:2 91:3 95:2 96:1 116:1 122:3 127:2 130:10 142:1 164:1 170:1 
-0.5546209405406761 -1 -0.4403430020864016 1:1 35:1 41:2 44:1 74:7 131:4 138:1 
-1 -1 -1 3:1 14:1 40:1 56:1 97:1 154:1 
-0.5167387096566 -1 -1 41:1 42:2 56:4 74:2 
-1 -1 -1 1:1 14:4 
-1 -1 -1 35:1 40:1 41:1 42:2 56:1 74:2 97:1 
-0.7636108031582368 -0.6573079290340781 -0.5910306852832883 1:1 3:3 7:1 11:2 14:1 29:5 37:1 53:3 57:1 58:1 63:1 89:1 91:1 102:2 105:1 119:2 130:15 
-1 -1 -1 3:2 14:1 56:1 97:1 154:1 
-1 -1 -1 11:1 58:1 72:1 91:1 114:2 
-0.1508873448073998 -1 -1 1:1 40:1 41:3 42:1 44:2 51:1 105:1 
-1 -1 -1 3:1 37:5 105:1 122:1 
-1 -1 -1 35:1 40:1 41:1 42:1 56:1 60:1 74:1 97:1 
-1 -1 -1 59:8 
-1 -1 -1 7:1 37:2 54:1 68:1 89:1 
-1 -1 -1 7:1 35:2 89:8 127:1 171:2 
-1 -1 -1 7:13 40:34 41:7 43:1 65:1 89:18 131:1 148:1 169:1 170:7 
-1 -1 -1 1:1 35:1 56:1 97:1 102:1 105:2 
-1 -1 -1 86:1 196:3 197:1 
-0.8131350041299401 -1 -1 1:1 35:1 37:4 44:1 65:1 76:1 95:2 119:1 125:1 
-1 -1 -1 7:1 29:1 37:1 59:1 
-1 -1 -1 3:2 58:2 178:1 183:1 
-1 -1 -1 1:1 
-1 -1 -1 3:1 169:1 
-1 -1 -1 1:1 29:2 35:2 51:2 97:1 119:1 
-0 -0.5972970657647463 -0.3598199741922775 1:1 7:1 14:2 37:1 40:1 42:1 89:1 
-0.01469679317016965 -1 -1 35:3 41:1 56:2 65:1 72:1 74:1 76:1 97:1 102:1 
-1 -1 -1 14:1 41:1 42:1 56:4 
-0.5271501842548458 -1 -1 1:1 7:1 11:2 29:1 40:1 89:2 
-0.607004867483677 -0.926531603133554 -0.9142616780307898 3:1 11:2 57:2 63:2 85:8 120:2 
-1 -1 -1 1:3 105:1 131:1 
-0.9725223848044622 -1 -0.7828001005430852 72:5 75:1 127:2 129:9 
-0.8145700780021833 -1 -1 7:6 29:2 41:1 68:1 
-1 -1 -0.944470196601062 14:21 53:2 68:2 78:1 102:1 114:1 119:1 
-1 -1 -1 1:2 7:1 12:2 54:1 65:2 80:1 86:9 103:4 142:3 189:1 196:1 197:2 
-0.9460038103889246 -0.8856229921720771 -0.5503627926317129 1:7 21:1 29:1 35:2 40:1 44:2 53:1 54:1 60:1 65:1 70:1 74:11 75:4 76:1 95:1 99:1 100:2 105:1 106:4 115:1 119:3 122:1 127:2 131:7 132:6 138:4 145:1 148:1 167:3 170:2 171:3 
-0 -0 -0.7573994322844316 1:3 7:2 29:1 44:1 51:1 109:1 136:1 171:1 177:1 
-1 -1 -1 1:1 29:1 44:1 59:1 60:1 65:1 76:1 85:2 114:1 171:1 
-1 -1 -1 3:2 29:1 127:1 
-0.2428192619540773 -0.01136047934556323 -0.06063262298200573 1:5 7:3 14:9 37:3 44:2 53:6 57:1 58:3 63:1 68:6 75:1 78:9 110:1 127:3 137:1 170:1 178:1 
-1 -1 -1 3:1 
-1 -1 -1 1:1 7:1 11:2 40:1 89:1 
