svm_type c_svc
kernel_type rbf
gamma 0.00507614
nr_class 4
total_sv 301
rho -0.0340057 -0.118176 -0.438328 -0.115034 -0.385386 -0.307163
label 1 2 3 4
nr_sv 77 89 74 61
SV
1 1 1 50:1 61:1 83:4 87:1 145:1 185:2 187:1 197:1 
1 1 1 6:1 8:1 24:1 33:1 82:2 99:1 145:2 163:1 184:1 
0.9497799689204656 0.8672510591287728 0.5503968463519474 8:21 13:3 26:3 33:22 52:1 54:3 69:1 81:1 83:20 143:2 181:1 196:1 
1 1 1 24:1 77:1 142:2 143:1 147:6 149:1 156:5 160:1 189:1 190:1 196:1 
0.9600417448907663 0.8745626263044884 0.5571407312242461 6:3 9:19 33:1 36:5 38:29 43:2 45:4 49:3 52:1 54:39 62:2 64:6 67:1 77:4 84:1 98:1 142:6 
1 1 1 33:2 69:1 70:5 190:1 
1 1 1 6:1 24:1 33:3 67:1 92:1 165:1 169:1 170:1 189:2 
1 0 0 8:3 10:1 15:1 16:2 17:1 18:1 19:1 20:1 21:1 22:1 23:1 24:2 25:1 27:1 28:2 31:2 32:1 34:1 45:1 46:2 47:1 50:1 54:8 86:1 175:6 187:1 
1 1 1 62:1 83:3 187:1 
1 1 1 8:1 10:1 33:1 52:3 66:2 67:1 73:1 81:1 90:1 152:2 179:1 
0.9143187743205692 0.8370546036576675 0.5217238022089684 6:22 24:1 26:1 33:3 54:3 62:1 67:3 83:9 92:20 175:1 181:1 189:1 197:2 
1 0 0 36:2 38:1 54:7 64:1 77:11 87:1 197:1 
0.3463328596014014 0 0 9:7 33:2 36:6 38:2 43:1 45:1 54:8 84:1 87:2 92:1 145:1 156:2 175:2 184:1 
1 1 1 8:1 10:1 15:1 16:2 17:1 18:1 19:1 20:1 21:1 22:1 23:1 24:2 25:1 27:1 28:2 31:2 32:1 34:1 45:1 46:2 47:1 50:1 
0.2811916828331625 0.3227221472938151 0.04384824274967231 6:1 8:2 10:1 13:14 15:1 16:2 17:1 18:1 19:1 20:1 21:1 22:1 23:1 24:3 25:1 26:7 27:1 28:2 31:2 32:1 33:5 34:1 36:1 43:1 45:1 46:2 47:1 48:8 50:1 54:5 67:2 69:2 71:1 72:1 73:7 82:3 83:1 90:2 101:1 143:1 154:2 156:1 175:2 188:1 197:1 
1 1 1 26:4 33:2 43:1 187:1 188:4 
1 0 0 9:1 36:6 43:2 45:1 54:11 64:3 84:1 87:1 92:2 98:1 197:5 
1 1 1 13:3 73:1 152:1 187:1 
1 1 1 25:1 47:1 54:1 60:1 66:1 103:1 127:7 131:1 145:2 147:1 148:1 159:1 181:1 185:1 
0.9658712498290549 0.8817132160548461 0.5618149081764426 9:15 33:2 36:7 38:34 43:1 45:4 49:26 52:24 54:18 61:36 62:2 99:23 101:2 152:2 184:2 
1 1 1 9:1 36:1 38:5 43:1 49:1 61:1 64:2 77:1 99:1 101:2 
1 0 0 13:4 26:1 33:1 36:1 38:1 48:4 49:1 54:8 
1 0.6770374329037044 0.543663965989338 6:2 9:1 36:1 38:1 43:2 52:1 54:3 62:1 64:3 84:1 
0.9929849596841294 0 0 6:2 8:5 9:1 26:3 33:2 46:1 49:1 54:6 62:3 67:2 83:4 92:1 131:1 133:1 138:1 143:1 145:2 175:1 
0.8873071608523937 0 0.05983685125447512 9:1 26:1 38:4 43:1 49:3 54:3 61:5 83:1 99:2 
1 0.5027028769090944 0.4334758395317375 9:1 36:1 43:3 45:1 49:2 54:3 64:2 84:1 87:1 98:1 99:2 
1 1 1 8:1 26:1 73:1 143:1 
0.8576898784716018 0 0 6:3 9:1 36:1 38:3 43:3 45:1 54:3 64:2 84:1 87:1 92:1 98:1 175:1 196:3 
0.4720637884750548 0.4615378212780334 0.2258743253778898 26:2 46:1 69:1 70:1 72:2 82:2 131:3 138:23 152:2 169:1 
0.4787919035678554 0.3356131370256757 0.1986784928627768 6:3 26:2 33:2 49:4 52:1 54:4 61:3 62:10 66:1 81:3 99:14 103:2 169:1 170:1 
0.5939098561625914 0.4508255602176341 0.2016146973056033 6:3 15:1 32:1 33:20 34:1 66:4 87:1 142:1 
0.1319100651736732 0 0 6:2 9:1 24:1 26:3 36:1 38:1 43:1 45:1 49:4 54:6 64:4 87:1 98:1 99:4 101:2 143:1 196:1 
0.1721039102794382 0 0 6:1 8:1 10:1 13:5 15:1 16:2 17:1 18:1 19:1 20:1 21:1 22:1 23:1 24:2 25:1 26:3 27:1 28:2 31:2 32:1 33:2 34:1 38:2 45:1 46:2 47:1 48:5 49:1 50:1 52:2 54:12 61:2 62:9 66:1 69:3 73:4 81:1 90:2 99:1 131:1 138:2 143:1 
1 0.5802264713064306 0.2707861942629175 8:1 67:1 72:1 131:3 138:12 152:1 170:1 196:1 
0.9660005677953493 0.8816887453956883 0.5617399483241429 6:11 9:19 17:1 24:1 31:11 32:3 36:11 38:82 43:3 45:9 49:13 50:1 52:5 54:38 61:11 62:5 64:16 67:4 77:2 87:4 98:3 99:10 101:10 175:1 184:1 197:2 
1 1 1 24:2 54:2 69:1 70:1 131:5 196:1 
1 0.8089070792673629 0.5226828305659039 9:1 13:11 24:1 26:3 33:11 36:1 38:2 48:7 52:1 54:30 61:1 62:2 66:3 67:1 73:4 82:1 83:4 90:1 143:2 160:2 171:3 175:2 190:3 197:1 
0.4063888786680674 0 0 9:1 36:10 43:1 45:1 54:9 64:4 67:2 77:1 84:1 87:1 98:1 143:1 156:1 171:1 174:2 
0.5294041595008647 0.50678241862589 0.2443001195789112 67:4 69:3 70:1 82:2 131:1 138:8 
1 0.2737932767437516 1 8:1 26:2 28:1 54:1 67:1 72:2 82:3 131:1 138:7 187:2 196:3 
0.6812843650557503 0.5810484583903428 0.2221405124660795 6:1 8:4 24:3 33:3 46:1 48:1 49:1 65:1 67:1 70:2 83:6 99:18 103:2 111:2 126:2 133:2 143:1 145:1 147:1 156:2 163:1 175:1 181:1 
1 1 1 43:1 67:6 101:1 190:2 
1 1 1 6:1 24:2 54:1 69:1 90:1 
0.4377771693492497 0.3000082691177545 0.04350338694663115 6:14 8:1 10:1 13:4 15:1 16:2 17:1 18:1 19:1 20:1 21:1 22:1 23:1 24:6 25:1 26:2 27:1 28:2 31:2 32:1 33:1 34:1 45:1 46:2 47:1 48:1 49:1 50:1 52:1 54:5 62:3 66:1 69:7 72:6 81:2 82:6 87:1 90:1 99:1 101:1 175:1 181:1 197:1 
0.8698758952953519 0.7936650396178563 0.5182033836643918 9:18 24:1 36:2 38:25 43:1 45:1 52:1 54:10 62:2 64:4 77:1 84:1 87:1 98:1 164:1 175:1 
1 1 1 43:1 92:8 142:1 143:1 184:4 
1 0.8228210244242312 0 8:1 10:1 12:2 15:1 16:2 17:1 18:1 19:1 20:1 21:1 22:1 23:1 24:2 25:1 27:1 28:2 31:2 32:1 34:1 45:1 46:2 47:1 50:1 61:1 156:1 175:3 181:1 
1 1 1 8:2 22:1 24:1 28:3 46:1 47:1 50:1 99:1 131:1 137:1 160:2 181:1 185:2 189:1 
0.8952729256001716 0.230573410921593 0 33:7 54:1 61:2 62:2 81:4 145:2 163:2 
1 0.4941110048654968 0.1830719220237801 8:1 9:1 10:1 13:1 15:1 16:2 17:1 18:1 19:1 20:1 21:1 22:1 23:1 24:2 25:1 26:2 27:1 28:2 31:2 32:1 34:1 36:3 38:1 45:1 46:2 47:1 49:1 50:1 54:21 66:3 67:1 69:3 73:1 83:9 90:1 92:4 101:1 104:1 142:1 143:3 145:6 160:2 171:1 187:1 197:1 
0.9660005747983887 0.8821470686181139 0.5617399523914918 2:1 6:54 8:4 9:177 13:137 22:1 24:9 26:13 33:28 36:130 38:220 43:124 45:12 48:137 49:177 52:83 54:311 61:127 62:14 64:49 66:6 67:39 77:36 81:3 84:1 86:2 87:21 90:4 92:20 99:145 100:1 101:20 138:3 142:1 143:4 152:2 154:6 156:1 164:1 181:4 184:6 190:2 196:1 197:4 
0.2080066891819981 0.1690027900001624 0 6:6 9:12 33:1 36:3 38:12 43:4 45:1 49:2 54:11 61:5 62:4 64:2 77:1 87:1 98:1 
0.5289395090321896 0.3441912029707743 0.1225476367156711 6:2 8:1 9:2 10:1 13:5 15:1 16:2 17:2 18:1 19:1 20:1 21:1 22:1 23:1 24:2 25:1 26:3 27:1 28:2 31:2 32:1 33:3 34:1 36:1 38:5 43:1 45:1 46:2 47:1 48:3 49:11 50:1 54:14 62:2 66:8 67:1 69:5 73:3 81:1 82:4 83:2 90:2 133:3 143:2 145:1 181:5 187:1 189:1 
1 1 1 9:1 36:1 43:3 45:1 54:3 64:3 84:1 98:1 
1 1 1 6:1 9:1 49:1 54:1 62:1 66:1 69:1 90:1 119:1 187:1 
1 1 0.6914958815035676 8:1 22:3 31:1 43:1 46:1 54:4 67:1 127:1 163:1 197:4 
1 1 1 27:1 40:1 45:2 107:3 111:3 113:1 
0 0.3103694156280797 0.08240853956509311 9:8 38:5 49:1 52:4 54:2 61:9 62:2 67:2 99:1 
0.09222704546881391 0.5286075319576078 0.08426659178040274 33:6 36:3 49:6 54:1 92:1 138:1 145:1 160:1 
1 1 1 38:2 54:4 64:2 67:1 
0.9660847281461616 0.8817097059551731 0.5617540090847205 6:1 9:2 13:40 48:40 90:2 152:1 196:1 
0.5890871400808513 0.5942324999659416 0.5152999340073767 8:3 10:3 26:4 33:2 34:1 46:1 72:3 81:10 
1 1 1 79:2 80:1 86:2 101:1 142:5 143:1 175:3 187:1 194:2 
0.3519208986808474 0 0 9:12 33:3 36:3 38:2 54:7 61:4 64:1 92:1 184:2 
1 1 1 189:1 
1 0.2204689322066979 0 26:4 45:2 67:3 69:2 72:3 131:4 138:6 142:1 143:1 160:1 196:1 
1 1 1 26:3 43:1 52:1 188:7 
1 1 1 24:2 33:1 131:3 178:1 
1 0.8923341336553381 0.6701493649382424 13:3 46:1 48:3 54:4 92:1 142:1 143:2 145:1 170:1 181:3 197:1 
1 1 1 33:2 52:1 66:1 88:1 163:1 
0.3004034276780241 1 1 9:2 36:3 38:1 43:2 54:2 77:6 84:1 
1 1 1 46:1 48:1 70:1 86:1 107:1 119:1 143:1 145:1 171:2 
1 0 0 8:1 10:1 15:1 16:2 17:1 18:1 19:1 20:1 21:1 22:1 23:1 24:2 25:1 27:1 28:2 31:2 32:1 34:1 45:1 46:2 47:1 50:1 54:2 138:1 184:1 
1 1 1 33:2 69:1 
1 1 1 24:1 67:3 99:1 142:2 147:1 170:1 
0 0 0.5623668968123073 8:1 9:1 10:1 15:1 16:2 17:1 18:1 19:1 20:1 21:1 22:1 23:1 24:2 25:1 27:1 28:2 31:2 32:1 34:1 45:1 46:2 47:1 50:1 
0.3104983671282237 1 1 8:1 10:1 15:1 16:2 17:1 18:1 19:1 20:1 21:1 22:1 23:1 24:2 25:1 27:1 28:2 31:2 32:1 34:1 45:1 46:2 47:1 50:1 
-0.2774222877591262 0.3788414507551454 0.3708181897944827 12:2 54:1 79:1 83:1 86:9 101:1 103:1 142:2 168:2 170:1 193:8 197:2 
-1 1 1 34:1 70:1 170:1 
-0.4903066104853528 0.02290293613657678 0 12:2 70:1 71:2 80:8 83:1 103:3 138:6 142:1 143:1 149:1 158:1 190:1 197:2 
-0.3004589266976991 0 0 54:9 79:8 95:1 138:1 142:4 145:1 149:1 170:1 175:1 187:2 
-0 0.1704847223546928 0 12:3 62:1 72:1 80:5 83:1 88:1 103:3 119:1 189:1 195:2 197:4 
-0.01187322506114668 1 0.06689325616535373 2:1 12:1 67:1 83:2 101:2 104:2 131:1 142:1 145:2 146:3 150:1 156:9 160:1 167:7 175:3 184:2 186:1 187:1 189:1 195:1 197:2 
-1 1 1 33:2 54:2 70:1 160:1 
-1 1 1 103:1 
-0.7416887622495262 0.6518718459113845 0.4178195426000723 12:4 33:2 44:2 52:3 54:19 66:2 67:2 70:1 72:1 82:1 83:3 101:5 123:1 131:2 138:4 145:1 156:8 168:1 170:1 171:5 175:12 184:5 185:1 187:1 188:4 193:5 197:2 
-0.6862093585521482 0 0 24:1 46:1 72:1 80:1 83:2 99:1 137:1 138:2 142:1 143:8 145:2 167:1 190:1 
-1 1 1 33:1 54:2 72:1 138:1 149:4 190:1 197:1 
-0.1009967012512748 0 0 54:8 70:1 83:2 92:1 103:1 115:10 124:1 131:1 144:1 160:1 165:1 169:2 170:1 184:2 185:1 187:2 188:1 190:1 197:1 
-0.6984695143622878 1 0.8167150834966859 54:2 72:1 79:2 101:1 131:2 138:2 148:3 170:1 172:1 182:1 
-0.4076608048517582 0 0 19:1 24:1 54:3 70:2 71:3 72:1 131:1 149:1 170:2 171:2 181:1 184:1 187:2 196:1 
-1 0.8853180528853226 0.6146132182222109 8:3 12:11 24:1 33:4 34:10 46:1 48:2 50:1 54:7 70:5 71:5 72:3 75:2 80:16 83:7 86:3 87:3 88:25 101:23 103:3 104:11 112:3 124:47 131:3 142:1 143:21 144:1 145:3 146:4 147:4 148:2 156:21 158:2 160:3 167:31 169:3 171:3 175:16 179:1 185:4 187:1 188:3 189:4 190:24 194:2 196:8 197:4 
-0.8318524016841097 1 0.1953842766516595 45:4 67:1 83:1 96:1 101:1 103:7 133:1 142:1 143:1 144:1 147:7 156:4 163:1 166:1 168:4 179:2 189:6 196:1 197:1 
-1 1 1 24:1 46:1 127:1 131:2 147:1 161:1 163:1 171:2 179:2 
-0.8538167037046278 0 0 9:2 33:1 46:1 49:1 54:3 61:1 62:1 66:3 72:1 101:6 131:3 143:1 145:1 156:1 167:4 195:1 197:1 
-1 1 1 28:4 34:1 72:1 103:1 135:1 148:1 
-1 1 1 33:2 45:2 50:1 54:1 132:1 142:1 184:1 
-0 0.1769234390618457 0 70:1 71:6 79:4 83:11 145:2 170:1 171:2 184:1 187:1 194:2 195:1 
-1 0.6576521053464068 0.4030977889465312 9:10 32:1 36:9 38:3 46:1 54:20 64:7 72:4 131:1 177:1 181:1 195:2 
-0.270261347746482 0.02086107419352443 0 24:2 80:1 88:3 101:4 104:13 112:1 124:1 131:1 143:4 144:1 146:1 148:1 156:1 184:1 189:2 197:2 
-0.381934832243426 0.09741832687033596 0 12:9 45:9 54:4 72:1 80:4 86:9 88:2 103:1 104:1 142:1 156:1 170:1 172:1 182:1 184:4 187:1 
-0.2361868994842323 0 0 54:2 70:1 83:4 104:1 131:1 138:4 142:1 143:7 144:1 149:1 165:1 169:1 170:1 184:6 187:5 190:1 196:1 
-1 0 0 8:3 38:1 52:1 54:7 62:2 64:2 80:4 83:1 148:1 175:3 187:2 196:1 197:1 
-1 0.8848481222972959 0.6144184025476885 49:1 66:2 67:2 69:1 92:2 131:5 138:43 156:1 160:3 175:1 187:1 196:1 
-1 1 1 2:2 54:1 96:1 142:1 163:1 
-0.4394042419624932 1 0.2411251137689024 24:1 33:1 45:1 96:5 104:4 124:1 142:1 143:9 147:2 154:1 162:1 163:4 171:2 
-1 0 0 33:1 44:1 52:2 54:6 62:1 66:1 67:1 72:2 83:1 88:1 90:1 131:1 138:3 156:1 171:1 175:2 181:1 188:1 197:1 
-0.2864342481550358 0.2343949178776449 0 12:3 36:1 54:5 70:4 83:2 87:1 101:2 119:2 124:2 143:2 156:5 167:2 175:1 187:1 189:1 194:16 
-0 1 1 62:2 72:2 80:6 88:1 170:1 182:1 
-0.006600147961299369 0.5838053984677438 0.7253502017522828 12:2 44:1 62:1 83:1 101:1 112:2 131:1 143:1 148:5 160:2 165:1 169:1 170:1 171:2 175:1 185:2 187:3 197:1 
-0 1 1 12:4 79:2 83:1 86:1 101:2 156:1 196:1 
-0.6207141058216676 0.1866372471044699 0 54:5 71:13 72:1 83:3 131:4 138:3 175:2 181:1 188:5 196:2 
-1 0 0 32:1 33:1 54:8 66:1 70:1 72:1 79:1 83:2 138:3 165:1 169:1 171:1 188:1 
-0 0.3178948286557966 0 12:3 54:1 80:5 88:6 142:2 175:1 179:1 185:3 
-1 1 1 45:1 54:1 64:1 83:1 112:1 138:1 158:1 165:1 169:1 
-0.3591459544069173 0.9597383754748557 0.4131078942235598 45:2 72:2 79:1 142:2 143:1 144:5 158:2 170:1 190:7 196:1 
-1 1 1 33:1 54:1 72:1 87:1 104:1 143:2 154:1 184:1 190:1 
-0.2017509905454231 0.2738475526883694 0.09586036818666717 72:2 100:1 101:1 115:6 142:1 156:5 168:12 181:1 188:2 189:1 192:2 193:3 197:2 
-1 1 1 24:1 83:2 
-0.8214323296292833 1 1 12:2 142:3 147:1 156:2 168:2 195:1 196:2 197:2 
-1 1 1 12:1 112:2 156:1 190:1 197:1 
-1 1 1 46:1 104:1 143:1 
-0.8621490738899578 1 1 54:2 70:1 72:1 131:1 170:1 181:1 194:4 
-1 1 1 54:3 62:2 64:3 72:1 124:1 127:4 131:1 169:1 195:1 
-0.432110966488606 0.5280703600206776 0.8293641245753564 12:1 34:1 71:3 83:1 86:2 104:2 138:2 143:2 145:1 170:1 181:1 182:1 189:1 191:2 192:4 194:1 197:1 
-1 1 1 80:2 160:1 197:1 
-0.304147636940336 0 0 12:2 24:1 46:1 50:1 54:3 70:1 72:1 79:1 83:1 86:10 101:1 103:1 115:1 138:1 142:1 156:1 170:1 187:2 189:1 197:1 
-1 1 1 31:1 54:2 72:2 
-0.9717294400860172 0.8322774049198646 0.5829380588263908 12:1 33:3 44:1 45:1 54:29 70:1 72:2 83:2 86:10 103:1 115:18 127:1 131:1 142:2 143:1 156:1 165:2 169:2 171:3 181:1 185:2 189:3 191:1 192:1 194:1 197:1 
-1 1 1 32:4 47:1 95:1 107:3 131:1 142:2 147:1 170:1 
-1 1 1 2:1 47:1 72:1 79:2 147:1 156:1 177:1 187:1 
-1 0 0 6:1 17:1 24:1 26:2 33:5 38:1 44:1 46:1 49:1 52:1 54:11 62:1 66:1 67:2 72:2 80:1 88:6 92:1 101:4 124:2 131:1 138:1 146:2 171:1 181:1 190:1 195:1 
-1 0.2944372598937124 0 24:1 54:3 72:2 83:2 143:1 175:3 
-0.4964509479989255 0.3714198185724547 0.04528248387710565 12:4 34:1 45:5 54:2 65:2 71:2 79:1 80:4 88:7 101:1 110:1 124:5 131:9 142:1 143:1 144:3 145:2 146:2 148:11 156:6 158:1 175:1 189:3 190:1 196:1 197:1 
-0.7549816046910626 0.7589153601331987 0.4966941625480973 40:4 68:1 70:15 71:1 72:1 75:1 79:3 83:2 89:2 103:1 104:1 148:1 158:1 175:3 185:1 194:2 
-0.9242884658210416 0.1813006206160221 0.7493538353058821 54:4 80:2 131:1 142:1 196:9 
-1 1 1 152:1 194:1 
-1 1 1 1:1 48:2 
-0.1192296312308307 1 1 101:2 104:1 143:3 175:2 190:1 197:1 
-1 0.8823745873796002 0.6110096908975202 8:1 24:4 33:33 34:1 36:2 38:1 54:8 62:2 66:1 67:1 70:4 79:1 86:1 101:1 112:5 131:6 138:15 143:2 145:1 146:1 149:1 178:1 181:1 193:3 197:2 
-0.15697575465353 0 0 12:1 24:1 52:1 54:13 72:1 112:1 124:1 131:1 138:7 149:1 156:1 158:3 170:1 172:1 175:1 182:1 196:1 
-1 0.2399777207329417 0.02393338431194076 9:2 12:1 27:2 31:2 32:1 33:1 38:1 42:1 43:5 44:2 46:1 48:1 49:1 52:2 54:12 62:1 64:6 66:1 70:1 72:1 83:3 92:3 99:6 101:2 119:1 127:1 138:1 143:1 145:1 148:2 156:1 169:1 171:4 184:2 187:8 197:2 
-1 1 1 70:1 131:1 143:1 156:2 194:2 
-1 0.8807357576139768 0.6114432038902171 12:21 47:1 54:19 71:1 86:29 101:12 103:1 104:7 112:1 115:3 124:1 138:1 142:12 143:5 145:3 156:6 165:2 168:4 169:5 170:1 171:3 175:1 187:8 193:2 196:2 197:1 
-1 1 1 24:3 83:2 101:1 
-0.5764760245544989 0.2485284463948111 0.07994940629037396 12:5 24:1 45:1 103:1 142:1 156:8 167:7 175:9 185:1 197:2 
-0.7036825392321372 0.5483679117377918 0.2907276060774113 54:1 62:1 70:1 71:3 72:2 83:11 88:17 101:1 143:1 145:4 156:1 184:1 187:2 188:3 196:1 
-0.3726480485505611 0 0 12:2 36:1 45:1 54:4 70:3 71:1 83:7 86:5 138:2 143:1 145:4 156:2 188:2 195:1 197:1 
-0.7071735515164992 1 1 1:4 35:1 40:4 41:3 45:1 57:1 74:8 89:5 101:4 137:3 144:6 148:1 197:2 
-1 0.2267907413724067 0 8:1 45:1 47:1 54:21 65:1 138:1 156:2 195:1 197:3 
-0.6650831331096274 0.5089776263773357 0.2448352513091172 12:7 24:1 54:2 65:1 70:2 83:2 86:1 112:7 142:1 149:1 156:3 160:1 168:9 170:1 171:1 187:1 188:2 189:1 193:15 197:2 
-1 0 0 54:5 104:1 142:2 143:2 145:1 170:1 194:1 
-1 0.8859060385163671 0.613969762572931 1:1 2:1 9:2 24:3 33:7 40:2 45:1 46:1 48:1 50:1 54:1 62:2 79:1 83:3 87:2 92:4 99:6 101:1 103:2 104:2 107:16 112:1 113:1 128:1 138:11 143:8 147:33 153:6 156:4 160:2 163:1 177:1 184:3 187:1 
-0.2416542949497092 0 0 17:1 54:6 62:1 76:1 88:6 124:2 138:4 160:2 167:2 170:1 171:1 175:1 
-0 0.8213703929298798 1 12:1 62:3 71:5 72:1 88:5 126:1 143:1 149:1 
-0.662298365183581 0.5586748892668174 0.3958367733792209 2:1 44:1 47:1 57:1 60:1 70:1 83:6 88:1 137:1 143:6 145:1 146:1 149:2 156:1 169:1 171:10 175:2 178:1 184:4 187:7 190:2 194:15 196:4 
-0.9551629691256145 0.816371041727845 0.5519444626985851 8:1 12:16 32:1 54:6 79:1 83:1 86:15 115:20 131:1 142:4 143:1 165:1 169:1 170:1 187:6 192:5 197:3 
-0.8310003427285957 1 1 72:1 115:9 170:2 182:1 
-1 1 1 137:1 160:1 
-0.5437553618580251 0.4224743635994493 0.1410490985964653 54:3 71:3 79:13 83:9 101:1 147:1 156:1 177:1 184:1 185:2 187:4 188:4 194:1 
-1 1 1 45:1 65:1 131:1 168:2 190:1 196:2 
-1 1 1 54:2 72:1 182:1 
-0.7978515972979868 1 1 12:4 54:1 69:1 72:1 88:2 90:1 124:1 138:1 175:1 182:1 196:1 
-1 1 1 45:2 101:5 112:1 
-1 1 1 4:1 70:1 72:1 131:7 138:2 170:1 
-1 1 1 135:1 175:1 179:1 
-0 -1 1 5:2 88:1 147:2 161:1 166:2 177:1 
-1 -1 1 27:1 87:1 127:2 179:1 
-0.3482577448417575 -0.2755292645850727 0 70:1 93:1 113:1 151:1 156:1 164:18 178:1 
-1 -1 0.6925805077824684 2:43 33:2 45:1 54:2 55:2 87:1 107:1 123:7 136:34 138:2 141:1 143:2 150:2 162:2 187:1 197:3 
-1 -1 1 45:1 107:4 147:1 180:2 
-0.2265864885575854 -0.2599669893700189 0 2:10 39:12 79:1 96:2 134:1 155:1 175:2 
-0 -0 0.3887965598281897 7:2 30:1 35:1 40:2 104:1 111:3 128:2 137:2 147:4 160:2 161:2 163:1 178:1 
-1 -1 1 131:1 190:9 
-1 -1 1 33:1 79:1 101:1 156:8 170:1 
-0.4629800378572285 -1 1 4:1 93:1 137:1 151:2 154:1 163:1 183:4 
-0.6529673067795646 -0.5838598341993653 0.295146931962073 2:1 5:3 101:3 118:10 140:2 142:1 154:3 156:1 160:1 170:1 174:14 179:3 186:2 197:3 
-0.745027936737927 -1 0.6816127412055 12:8 80:4 88:2 103:1 118:7 141:1 154:2 156:3 197:1 
-1 -1 1 2:1 107:1 153:1 166:1 
-1 -1 1 5:3 118:1 154:2 170:1 
-1 -1 1 131:1 147:1 177:1 
-0 -0.1156477849290736 0.9070764466844299 113:1 137:1 151:1 154:5 156:1 163:1 176:1 183:4 
-1 -1 0.6445218484807836 5:3 54:2 93:26 118:15 140:8 142:1 154:4 156:1 173:1 186:1 197:2 
-1 -1 1 2:1 4:1 5:1 27:2 70:1 83:1 94:1 157:1 162:1 176:2 189:1 
-1 -1 1 30:1 40:1 111:1 121:3 137:1 166:1 179:1 180:1 
-0.4603847355684305 -0.405659631004045 0.08287876344223401 2:1 4:13 5:1 39:12 87:1 150:3 155:2 160:1 175:1 
-1 -1 1 5:2 24:2 64:1 78:1 111:3 131:3 138:2 151:3 166:1 178:3 
-0 -0 0.7429917041078651 2:3 4:2 25:2 31:1 39:1 137:1 152:1 170:1 189:1 
-0.3129654487741579 -0 0.694924378486043 2:2 5:2 13:1 69:1 118:2 140:1 152:1 173:6 184:1 
-0 -0.1744755075650698 0 2:4 48:1 93:1 108:1 121:7 139:1 163:1 170:1 180:2 
-0.1387878611198171 -0.09489545116553705 0 2:17 4:2 5:2 30:4 78:4 83:3 87:2 141:2 147:2 152:3 157:1 197:1 
-1 -1 0.6891054493942541 2:20 36:5 39:14 40:1 54:2 55:30 87:3 94:6 107:4 113:2 128:4 136:1 160:1 162:2 164:2 183:2 184:1 
-0.9619202807323676 -0.9487037195037272 0.5417029785945998 1:1 2:6 4:18 30:3 43:1 61:1 65:1 96:4 107:8 113:15 121:1 128:2 131:1 133:4 137:2 139:3 147:3 151:1 152:1 153:2 154:1 160:4 162:1 163:8 164:1 166:5 178:5 179:1 189:1 
-1 -1 1 5:2 33:1 36:1 38:1 45:1 49:1 54:1 87:1 140:3 142:1 
-1 -1 1 74:1 78:1 107:1 160:2 166:3 
-0.7108647065539776 -0.6855735799630467 0.5800468762995349 1:2 2:2 3:2 4:1 6:1 30:2 41:1 68:15 75:1 89:4 96:1 111:7 122:1 128:6 133:3 137:4 147:7 151:1 154:2 160:1 161:1 163:3 177:1 178:3 
-1 -1 0.5558749693070435 9:2 36:2 54:3 72:1 93:5 118:1 140:1 142:1 143:1 154:7 156:1 158:1 163:1 
-1 -1 1 2:1 4:1 162:1 177:1 
-0 -0 0.8209995544994462 2:3 4:2 55:1 121:1 141:2 150:2 152:1 157:1 160:1 196:1 
-1 -1 1 111:1 113:1 137:2 161:2 163:2 
-1 -1 1 11:1 30:1 33:2 41:1 113:1 137:2 142:1 147:1 148:1 177:1 178:1 
-1 -1 0 4:1 6:1 24:1 30:1 54:4 70:1 79:1 83:1 113:1 128:2 137:3 142:1 143:1 147:1 160:1 163:1 184:1 
-1 -1 1 4:1 30:1 113:1 163:2 
-0.5277880200574239 -0.5555171092565305 0.3330420416533664 5:1 24:1 70:1 112:1 135:5 138:1 142:1 156:2 164:23 178:2 189:1 190:2 197:1 
-0.3627971535491347 -0.4955509245203578 0.8963514363748588 2:2 108:1 164:8 183:2 
-0.756222999675915 -1 1 2:1 4:2 94:1 107:2 108:1 111:1 131:1 134:2 135:1 
-1 -1 1 30:1 128:2 137:1 161:1 
-0.5399725107656959 -0.1367316573821887 0.6512032061981077 5:1 50:1 82:1 111:3 133:2 137:1 160:4 161:1 
-0 -0 0.8581815245177147 2:1 4:1 5:1 39:1 55:1 78:1 107:2 121:1 133:1 139:2 152:1 166:1 
-1 -1 1 30:1 107:1 111:1 113:1 128:2 137:1 147:1 
-0.2004432383324522 -1 0.6355524591100944 2:5 48:2 54:1 55:3 195:1 
-1 -1 1 5:3 147:1 
-1 -1 1 2:1 55:3 
-1 -1 1 4:1 108:1 123:1 137:2 147:1 160:1 161:1 
-0.2759535706027805 -0.7640386028494973 1 5:2 42:1 111:2 128:2 161:2 177:1 
-0 -1 1 2:1 5:1 30:2 72:1 107:1 113:2 160:1 170:1 
-0.3854505348575017 -1 1 4:2 39:2 83:1 89:1 96:5 147:1 151:1 155:2 164:2 173:1 189:1 
-0 -0.5337403780110482 0.204070391963321 5:2 70:1 93:1 101:1 118:3 124:1 131:1 140:4 147:2 160:1 174:6 175:2 179:1 197:1 
-1 -0.8800649286879147 0.01815273736312984 2:1 5:1 24:2 55:6 61:2 67:2 70:2 83:2 93:4 101:1 123:3 138:1 151:1 160:1 164:1 173:1 175:2 178:1 179:1 184:3 187:3 189:1 195:1 
-1 -1 1 65:1 127:1 166:6 
-1 -1 1 1:2 35:1 41:5 45:1 50:1 65:1 74:4 76:1 97:1 160:1 
-0.0006878288232003805 -0 0 2:1 5:3 39:1 65:1 96:1 118:5 124:1 140:5 142:1 154:2 170:1 173:10 174:3 186:3 
-0.9264132319836551 -1 1 72:1 93:5 152:1 153:7 
-0.5128054140034254 -1 0 5:2 28:1 50:1 86:1 93:3 103:1 108:1 118:1 135:1 154:1 156:11 171:1 173:5 179:1 186:1 188:1 189:5 194:3 197:1 
-1 -1 1 2:2 5:2 33:1 141:1 160:1 163:1 
-1 -1 1 4:4 22:1 70:3 113:1 138:1 160:2 177:1 
-0.8893159761987286 -1 0.5528795857271915 78:1 79:1 83:4 101:1 107:1 131:7 137:2 142:1 156:1 166:3 170:1 176:9 179:1 
-0.9752212166834844 -0.9700500633368749 0.6080846649105346 2:1 25:1 45:1 50:1 54:5 70:5 123:1 124:5 131:4 135:16 136:1 138:1 140:2 142:2 147:1 156:2 157:2 164:30 165:2 169:2 178:1 189:1 194:2 195:1 197:4 
-0.5072143421962486 -0.6031317911142881 0 25:1 30:1 111:3 128:1 137:2 143:2 147:9 160:1 163:3 177:1 178:1 
-0.4748067061080073 -0.290194528780252 0 2:1 33:1 45:1 47:2 72:1 107:6 113:10 152:1 170:1 177:5 
-1 -1 1 2:2 80:1 137:1 180:2 
-0.6019646148493882 -0.5733020036843037 0.2924072056586803 5:3 33:1 101:1 118:17 140:3 154:10 156:1 160:2 174:1 175:1 186:6 190:2 197:1 
-0.4807630556214607 -0.6957781695810517 0 2:10 4:5 39:2 54:3 55:1 96:1 115:1 121:1 123:1 131:11 132:1 135:1 141:1 160:1 170:2 175:2 176:1 189:1 
-1 -1 1 4:1 93:1 137:1 151:1 177:2 179:1 183:2 197:1 
-1 -1 0.6927172838020986 2:1 9:1 36:1 54:1 67:1 79:1 88:1 93:7 101:1 112:2 118:1 136:1 140:9 142:6 147:1 154:5 155:4 156:1 173:34 174:1 184:25 186:1 187:4 189:1 190:1 197:1 
-0.1452442398499124 -0.9941301017686303 0.4922613861587552 5:2 88:1 103:1 108:1 133:1 135:3 142:1 160:3 177:2 180:3 
-1 -1 1 28:1 107:3 127:1 145:1 
-0.8105422509736422 -0.7663596862109896 0.1361685477954812 2:8 30:5 31:1 43:1 48:1 54:4 87:3 94:1 101:1 136:1 141:3 152:2 155:4 156:1 159:11 160:1 161:1 162:1 178:1 197:3 
-0.799110870334955 -0.70750903041768 0.2342859123285465 2:1 4:1 5:2 39:6 69:1 83:2 90:6 96:10 135:1 139:1 140:2 152:5 159:2 173:2 189:6 
-0.1142486374181937 -0 0 2:16 82:1 121:1 123:2 157:1 159:1 185:4 
-1 -1 -1 1:1 3:1 7:2 105:1 
-0.6278288405077429 -0.8587353311975386 -1 1:3 3:1 32:1 68:7 
-1 -1 -1 1:1 7:8 40:18 41:9 60:1 75:1 89:18 131:5 148:1 166:1 170:2 
-0.8361406364920607 -0.7968763579716763 -0.7113110809300017 1:1 3:1 29:1 35:1 37:3 40:2 41:1 42:1 44:2 51:1 59:6 60:2 63:1 68:2 85:2 100:14 106:1 120:2 125:2 127:2 131:1 132:6 
-0.5603953465992545 -0.7931576762447519 -1 14:2 41:3 42:1 44:1 53:1 57:2 
-1 -1 -1 1:1 3:2 41:1 117:1 131:5 190:1 
-0 -0.06972235376121814 -0.4730032127411977 1:1 3:1 7:1 14:1 21:2 29:1 37:1 42:1 65:1 95:1 125:1 
-1 -1 -1 1:2 35:1 40:1 51:1 
-0 -0 -0.1152503627282257 1:2 7:3 35:1 37:3 60:1 65:4 76:3 95:1 
-1 -1 -1 1:8 37:1 57:3 59:1 63:5 85:14 102:1 120:22 126:1 143:1 
-1 -1 -1 86:1 196:3 197:1 
-1 -1 -1 35:1 44:1 53:1 65:1 170:1 
-0.6600618387254709 -0.713963590487443 -0.8830457513411544 11:1 41:2 44:2 53:4 58:2 117:4 147:1 171:2 
-1 -1 -1 3:1 56:1 97:1 154:1 
-1 -1 -1 1:1 37:2 42:1 59:1 60:1 76:1 130:1 
-1 -1 -1 1:1 40:1 41:1 42:1 74:2 
-1 -1 -1 82:3 149:1 
-1 -1 -1 3:2 44:1 60:2 65:1 91:3 102:1 127:2 
-1 -1 -1 86:1 196:3 197:1 
-1 -1 -1 1:1 35:1 44:1 74:1 78:1 110:1 117:1 119:1 
-0.9821754345653178 -1 -0.9487458295471459 58:1 105:2 106:1 119:2 129:6 132:1 
-1 -0.9074817603100336 -0.6269913555280799 1:3 7:3 59:2 110:2 187:6 
-0.9843073358803714 -0.8436965169636369 -0.8295458431355782 3:1 11:8 29:16 35:1 40:3 85:7 102:2 114:3 120:1 127:1 131:1 196:1 
-0.3179041785833833 -0.404723731818169 -0.5351238875509923 3:1 11:2 57:2 63:2 85:8 120:2 
-1 -1 -1 82:1 120:1 196:1 
-0.3359284503743427 -0.2811699935359044 -0.2183345434860308 1:6 35:11 41:1 45:1 97:2 171:1 
-1 -1 -1 56:1 78:1 117:3 171:1 
-0 -0 -0.5556040405058827 1:12 4:1 27:1 40:4 56:1 74:1 106:1 137:2 166:5 178:2 
-0.6083397291497986 -0.7112679662787408 -0.8003717839447722 7:1 11:9 29:1 40:1 114:1 131:2 
-0.556798982376463 -0.4247185128898145 -0.2421017608055965 1:3 3:1 35:3 41:4 42:1 44:4 51:2 56:13 65:4 74:2 76:3 85:4 95:2 99:1 100:3 105:3 127:1 131:1 132:1 142:1 143:1 
-1 -1 -1 160:1 
-0 -0.7767644602827966 -0 1:4 3:1 40:1 44:1 131:3 147:1 161:1 
-0.2861099178952404 -0.2404792082853303 -0.02354783459677316 1:13 7:2 11:1 14:1 35:1 37:3 44:3 45:1 51:1 57:2 58:2 60:1 63:2 65:2 95:6 96:1 110:1 114:4 126:6 127:1 130:2 
-1 -1 -1 14:1 40:1 
-0.4639250275986374 -0.4830133025264581 -0.7984937858976106 3:1 7:1 42:1 75:7 129:5 183:1 
-1 -1 -1 3:1 37:1 
-1 -1 -0.9922451595125004 1:10 3:5 35:1 37:4 40:2 42:2 44:1 57:4 59:2 63:2 76:1 85:24 100:5 120:11 131:1 132:3 143:1 
-0.2123434802156444 -0.9484150117300875 -0.7644038572440109 3:2 11:1 14:1 47:1 53:2 89:3 117:1 126:1 
-0.4243836400229286 -0.4028242486221574 -0 1:4 7:5 11:2 31:1 46:1 54:2 58:1 75:5 110:4 117:1 127:1 
-0 -0.2315113232506192 -0 1:1 3:2 11:7 29:8 35:1 40:2 41:2 60:1 63:6 72:4 85:2 106:1 125:1 143:1 170:1 
-1 -1 -1 14:3 40:1 119:1 152:2 
-1 -1 -1 40:2 85:2 142:1 
-0.6624942004198514 -0.4510611506978449 -0.351330327187147 11:7 14:15 102:1 
-0.6078461469280484 -0.8526785687625185 -0.791973743850953 3:3 29:1 57:1 60:1 85:1 87:1 102:6 106:1 120:1 143:1 
-0.6982066645735248 -1 -1 3:1 129:6 137:1 
-0 -0 -1 1:2 7:1 11:1 14:1 37:1 89:1 
-0 -1 -1 35:1 40:1 41:1 42:2 56:1 74:2 97:1 
-1 -1 -0.9746811913665734 1:21 7:1 11:2 14:9 44:1 47:1 51:2 58:2 59:1 63:1 65:2 75:3 85:2 91:3 95:2 96:1 116:1 122:3 127:2 130:10 142:1 164:1 170:1 
-0.8649304009865181 -1 -0.7787489265366896 1:1 35:1 41:2 44:1 74:7 131:4 138:1 
-1 -1 -1 3:1 14:1 40:1 56:1 97:1 154:1 
-0.4428963902395941 -0.5812926903583987 -0.8766410864498733 41:1 42:2 56:4 74:2 
-0.3992592101595858 -1 -1 1:1 14:4 
-0 -0.5781935074562609 -1 35:1 40:1 41:1 42:2 56:1 74:2 97:1 
-0.7842499553709497 -0.7024115929557113 -0.6678623713039281 1:1 3:3 7:1 11:2 14:1 29:5 37:1 53:3 57:1 58:1 63:1 89:1 91:1 102:2 105:1 119:2 130:15 
-1 -1 -1 3:2 14:1 56:1 97:1 154:1 
-1 -1 -1 11:1 58:1 72:1 91:1 114:2 
-0 -0.1893757851256017 -0.9642603574456283 1:1 40:1 41:3 42:1 44:2 51:1 105:1 
-1 -1 -1 3:1 37:5 105:1 122:1 
-1 -1 -1 35:1 40:1 41:1 42:1 56:1 60:1 74:1 97:1 
-1 -1 -1 59:8 
-1 -1 -1 7:1 37:2 54:1 68:1 89:1 
